<?xml version="1.0"?>
<opencv_storage>
<opencv_ml_svm>
  <format>3</format>
  <svmType>C_SVC</svmType>
  <kernel>
    <type>LINEAR</type></kernel>
  <C>1.</C>
  <term_criteria><iterations>100</iterations></term_criteria>
  <var_count>256</var_count>
  <class_count>2</class_count>
  <class_labels type_id="opencv-matrix">
    <rows>2</rows>
    <cols>1</cols>
    <dt>i</dt>
    <data>
      0 1</data></class_labels>
  <sv_total>1</sv_total>
  <support_vectors>
    <_>
      -1.19209290e-07 -4.73332167e-01 2.37935469e-01 1.16837807e-01
      -3.39838088e-01 1.02243364e-01 1.37714401e-01 4.00418371e-01
      3.08792949e-01 5.07890806e-02 6.59925044e-02 5.12833931e-02
      1.72846422e-01 3.92231420e-02 -4.07078117e-01 -8.52611735e-02
      -4.83738452e-01 -3.16219777e-01 3.43790092e-02 4.99122357e-03
      6.45937100e-02 1.43033853e-02 1.06037240e-02 2.67660171e-02
      1.37717217e-01 6.64794492e-03 4.64909375e-02 1.07730664e-02
      3.30212742e-01 3.55255418e-02 -3.03277582e-01 -2.51469493e-01
      2.52819031e-01 2.64835991e-02 7.84536824e-02 5.40635325e-02
      2.44838521e-02 3.00437640e-02 5.21727055e-02 1.02371141e-01
      4.50429693e-02 1.75285526e-02 1.70985032e-02 1.82893034e-02
      3.11357137e-02 2.14302223e-02 3.57628576e-02 1.37843072e-01
      1.20744295e-01 1.33176306e-02 6.31916299e-02 6.23187497e-02
      1.46584306e-02 2.53762659e-02 5.81611916e-02 9.64744017e-02
      -4.98579502e-01 -5.33031626e-03 1.03683136e-02 1.51752448e-02
      -1.45435974e-01 3.99283320e-02 1.49616525e-01 2.46948540e-01
      -3.80633473e-01 8.10892954e-02 3.10982279e-02 5.71896229e-03
      -3.84310842e-01 -4.68155864e-04 -1.00476053e-02 1.69072449e-02
      3.73769179e-02 2.45961454e-02 1.37366708e-02 1.08818440e-02
      -6.79441867e-03 1.80437416e-02 1.99920703e-02 5.54365739e-02
      7.70931169e-02 1.04741817e-02 2.74901614e-02 2.05360837e-02
      -2.64781527e-03 6.09202357e-03 1.30982073e-02 2.44842712e-02
      5.41786216e-02 1.37370108e-02 8.07566848e-03 1.10382428e-02
      5.97347040e-03 1.86843928e-02 4.40501198e-02 9.15079117e-02
      1.36783212e-01 2.95659862e-02 6.25880510e-02 4.67513129e-02
      -1.72846597e-02 1.27629749e-02 4.93934378e-02 7.84650818e-02
      2.79418528e-02 1.30460430e-02 7.69309560e-03 2.34679524e-02
      -3.14930221e-03 3.16086342e-03 -2.46796850e-03 8.74697790e-02
      4.02047783e-01 2.93273516e-02 1.02071419e-01 7.87853003e-02
      3.03576398e-03 6.12680800e-03 8.42379406e-02 1.19834699e-01
      1.64198112e-02 1.97859313e-02 5.74169271e-02 4.50928919e-02
      -2.87831157e-01 5.54780848e-02 1.94896027e-01 4.71876949e-01
      2.76602775e-01 1.37661129e-01 3.15289125e-02 -4.35038835e-01
      3.17200758e-02 2.82766744e-02 2.23049764e-02 2.79861167e-02
      8.20782259e-02 7.29727745e-02 1.29679609e-02 -8.61744583e-03
      6.36530370e-02 7.08290935e-02 2.81806756e-02 2.46244088e-01
      4.09393758e-02 -8.98149330e-04 1.83141753e-02 1.36267608e-02
      2.38748733e-02 1.13116037e-02 3.55712324e-03 3.72948796e-02
      7.43590668e-02 5.58009967e-02 2.60370132e-02 -1.44701693e-02
      9.50267166e-02 8.89729634e-02 5.98977320e-02 2.08402038e-01
      6.25085235e-02 4.40477468e-02 2.48723873e-03 -1.62705209e-03
      5.31189563e-03 8.95122904e-03 1.94345172e-02 6.85168877e-02
      1.11078341e-02 1.77634601e-02 1.28584696e-04 -9.98726208e-03
      1.61919035e-02 2.97428574e-02 2.09073108e-02 1.42245859e-01
      2.65118331e-02 5.28166676e-03 1.62874591e-02 3.20785330e-03
      7.24260928e-03 4.35575983e-03 2.36236695e-02 4.76072617e-02
      -8.69809277e-03 -3.18339393e-02 -3.40470509e-03 -6.58615470e-01
      2.87393387e-02 3.58764827e-02 5.73525615e-02 -4.04913038e-01
      1.83200702e-01 2.61578888e-01 1.85505059e-02 -1.54306471e-01
      4.06158203e-03 2.87669618e-03 1.11550912e-02 -2.15057224e-01
      6.90412447e-02 8.63609314e-02 1.66669264e-02 2.72987932e-02
      4.30856757e-02 8.48985016e-02 6.76204683e-03 1.68388680e-01
      4.56350856e-02 3.01113036e-02 1.26848482e-02 5.19196056e-02
      1.49380555e-02 1.72648430e-02 2.24293750e-02 4.75914776e-02
      7.90869445e-02 8.55691880e-02 2.57468764e-02 2.28956249e-02
      8.17232057e-02 1.15861498e-01 6.98924735e-02 3.71311307e-01
      -3.90125602e-01 -3.03088695e-01 2.48341896e-02 1.61310062e-01
      2.23250985e-02 3.98748145e-02 -1.42591633e-03 2.14035317e-01
      2.40261890e-02 7.26475120e-02 1.55373607e-02 1.00050509e-01
      -8.05693306e-03 9.51421633e-02 -7.80311942e-01 -4.18690115e-01
      -1.40990615e-01 -2.31666461e-01 9.63053033e-02 2.31183574e-01
      3.49942036e-02 6.92312866e-02 7.72248581e-02 4.62121636e-01
      2.34433502e-01 1.91163540e-01 1.17452495e-01 -4.27062660e-01
      1.46335766e-01 3.59991014e-01 -4.94170606e-01 1.38528359e+00</_></support_vectors>
  <uncompressed_sv_total>18</uncompressed_sv_total>
  <uncompressed_support_vectors>
    <_>
      1. 1.92563087e-01 1.28021255e-01 1.43160701e-01 2.28154063e-01
      4.86055799e-02 1.50066406e-01 2.91633487e-01 1.63877830e-01
      2.92164683e-02 2.01859232e-02 2.70916354e-02 1.81673318e-01
      4.22310792e-02 2.16733083e-01 4.49668020e-01 1.87782213e-01
      2.60292180e-02 2.49668006e-02 1.59362555e-02 2.92164683e-02
      3.45285540e-03 2.70916354e-02 2.01859232e-02 1.57237723e-01
      1.69986729e-02 2.28419658e-02 1.24834003e-02 2.34528571e-01
      1.51394429e-02 3.38379830e-01 1.82735726e-01 1.23240381e-01
      2.36387793e-02 1.51394429e-02 1.64674651e-02 2.60292180e-02
      4.78087692e-03 1.91235077e-02 3.37317400e-02 1.88579019e-02
      1.06241705e-03 5.31208469e-04 2.39043823e-03 2.09827367e-02
      7.17131514e-03 2.54980084e-02 5.36520630e-02 1.38645425e-01
      2.39043832e-02 1.88579019e-02 1.67330690e-02 3.21381167e-02
      3.45285540e-03 1.83266941e-02 2.68260315e-02 1.90438256e-01
      1.59362555e-02 2.57636141e-02 2.01859232e-02 3.37317407e-01
      2.44355928e-02 2.03718469e-01 1.66268274e-01 1.89375833e-01
      3.16069089e-02 2.86852606e-02 2.65604258e-02 2.49668006e-02
      4.78087692e-03 1.77954864e-02 2.23107580e-02 3.47941592e-02
      2.39043823e-03 3.45285540e-03 3.45285540e-03 1.91235077e-02
      1.59362552e-03 1.08897751e-02 2.09827367e-02 4.99336012e-02
      1.85922976e-03 4.51527257e-03 1.85922976e-03 3.45285540e-03
      2.65604234e-04 3.18725104e-03 3.71845975e-03 4.78087664e-02
      3.18725104e-03 5.31208515e-03 1.59362552e-03 1.99203193e-02
      1.85922976e-03 2.07171328e-02 1.72642767e-02 1.29349276e-01
      2.92164683e-02 1.83266941e-02 2.33731754e-02 1.85922980e-02
      3.71845975e-03 1.96547154e-02 2.68260315e-02 2.54980084e-02
      1.59362552e-03 -2.91038305e-11 2.12483411e-03 1.19521916e-02
      3.71845975e-03 1.77954864e-02 2.73572393e-02 2.71713167e-01
      2.44355928e-02 3.39973457e-02 1.93891115e-02 2.28419658e-02
      1.85922976e-03 2.17795502e-02 2.70916354e-02 3.85391772e-01
      1.32802129e-02 5.07304147e-02 3.37317400e-02 1.71845958e-01
      1.38114216e-02 1.51394427e-01 1.42363891e-01 1.71845958e-01
      1.77423641e-01 2.39043832e-02 1.94156721e-01 2.84196567e-02
      4.94023934e-02 2.01859232e-02 4.34528589e-01 2.84196567e-02
      2.52324045e-02 2.39043823e-03 2.20451541e-02 2.70916354e-02
      3.10756993e-02 2.81540528e-02 2.55511314e-01 3.10756993e-02
      2.09827367e-02 5.31208515e-03 1.77954864e-02 4.51527257e-03
      2.65604258e-03 1.85922976e-03 1.93891115e-02 3.02788857e-02
      1.83266941e-02 3.18725104e-03 1.85922980e-02 2.01859232e-02
      1.93891115e-02 3.42629515e-02 1.39176637e-01 1.96547154e-02
      2.33731754e-02 7.96812761e-04 2.52324045e-02 5.04648080e-03
      1.11553790e-02 3.18725104e-03 5.68393134e-02 4.78087692e-03
      4.78087692e-03 3.18725104e-03 5.31208515e-03 6.10889820e-03
      8.23373254e-03 4.78087692e-03 4.78087664e-02 2.33731754e-02
      1.91235077e-02 3.18725104e-03 1.83266941e-02 4.24966821e-03
      2.39043823e-03 2.39043823e-03 3.45285535e-02 2.41699871e-02
      1.75298806e-02 6.90571079e-03 2.94820741e-02 3.24037187e-02
      2.94820741e-02 2.78884470e-02 1.98671982e-01 1.74502000e-01
      2.16998681e-01 2.23107580e-02 3.03585678e-01 1.91235077e-02
      1.72642767e-02 2.04515290e-02 1.60956189e-01 2.65604258e-02
      2.44355928e-02 2.39043823e-03 3.42629515e-02 1.54050477e-02
      2.15139445e-02 1.64674651e-02 1.25896424e-01 5.12616225e-02
      1.69986729e-02 6.90571079e-03 2.09827367e-02 2.92164693e-03
      2.39043823e-03 2.12483411e-03 1.67330690e-02 3.00132819e-02
      2.23107580e-02 8.23373254e-03 2.33731754e-02 1.77954864e-02
      1.35458177e-02 2.17795502e-02 8.65869895e-02 2.27622852e-01
      3.40770274e-01 2.41699871e-02 2.03984067e-01 1.69986729e-02
      1.93891115e-02 1.62018593e-02 1.63612232e-01 2.36387793e-02
      3.55909728e-02 2.39043823e-03 2.57636141e-02 1.72642767e-02
      2.49668006e-02 2.84196567e-02 1.79548487e-01 4.53652084e-01
      1.85922980e-01 5.28552495e-02 1.54847279e-01 1.75298806e-02
      1.32802129e-02 2.68260315e-02 1.46879151e-01 2.33731747e-01
      1.17397085e-01 4.54183295e-02 1.80079684e-01 1.27755657e-01
      8.81806165e-02 1.81142107e-01 7.40504682e-01</_>
    <_>
      1. 1.59171477e-01 1.39391676e-01 9.70330238e-02 1.59917891e-01
      4.12390344e-02 9.83392373e-02 9.85258445e-02 1.33980215e-01
      2.72438880e-02 3.80668044e-02 2.55644694e-02 9.46072042e-02
      2.66840830e-02 9.75928307e-02 1.20171674e-01 1.57678664e-01
      2.42582560e-02 3.06027234e-02 1.36219440e-02 3.95596176e-02
      6.90427283e-03 2.53778677e-02 2.10860223e-02 8.80761296e-02
      1.90334003e-02 1.81003921e-02 1.41817499e-02 9.05019566e-02
      1.95932072e-02 1.01511471e-01 9.21813771e-02 1.45736143e-01
      2.20190324e-02 2.63108779e-02 1.94066055e-02 2.57510729e-02
      5.97126316e-03 1.66075751e-02 1.49281574e-02 3.32151502e-02
      5.97126316e-03 7.46407872e-03 3.17223347e-03 1.77271869e-02
      5.97126316e-03 2.25788392e-02 2.96697132e-02 9.06885564e-02
      1.13827204e-02 1.67941768e-02 1.34353423e-02 2.38850527e-02
      6.71767117e-03 1.69807803e-02 1.41817499e-02 8.28512758e-02
      9.33009852e-03 2.07128190e-02 1.69807803e-02 9.40473974e-02
      2.33252458e-02 7.93058425e-02 8.75163227e-02 1.54506430e-01
      3.78802009e-02 2.46314611e-02 2.03396156e-02 2.55644694e-02
      7.46407872e-03 1.69807803e-02 2.10860223e-02 2.83634998e-02
      4.66504926e-03 4.47844714e-03 5.78466104e-03 1.36219440e-02
      3.91864125e-03 1.25023322e-02 2.38850527e-02 2.96697132e-02
      8.21048673e-03 6.53106906e-03 5.03825303e-03 7.27747707e-03
      3.35883535e-03 2.98563158e-03 9.33009852e-03 2.79902965e-02
      3.91864125e-03 5.41145727e-03 7.27747707e-03 2.40716543e-02
      1.06363129e-02 1.94066055e-02 3.60141806e-02 9.05019566e-02
      2.85501014e-02 1.67941768e-02 1.66075751e-02 1.47415558e-02
      7.09087495e-03 1.36219440e-02 1.56745650e-02 2.48180628e-02
      8.21048673e-03 8.95689428e-03 8.02388508e-03 1.64209735e-02
      5.59805892e-03 2.08994206e-02 3.43347639e-02 9.27411839e-02
      2.66840830e-02 1.84735954e-02 1.67941768e-02 2.33252458e-02
      8.58369097e-03 1.49281574e-02 2.20190324e-02 8.71431231e-02
      2.08994206e-02 2.83634998e-02 2.68706847e-02 7.12819546e-02
      3.76935974e-02 8.22914690e-02 1.37152448e-01 1.43123716e-01
      9.49804038e-02 3.63873839e-02 8.80761296e-02 2.68706847e-02
      2.33252458e-02 2.46314611e-02 9.47938040e-02 2.50046644e-02
      1.88467987e-02 1.06363129e-02 2.38850527e-02 1.49281574e-02
      2.23922376e-02 2.12726258e-02 9.05019566e-02 3.07893250e-02
      1.69807803e-02 1.04497103e-02 1.15693221e-02 5.78466104e-03
      4.29184549e-03 5.41145727e-03 2.46314611e-02 1.97798088e-02
      9.51670017e-03 8.21048673e-03 1.30621381e-02 2.36984510e-02
      1.92200039e-02 3.06027234e-02 8.73297229e-02 3.22821401e-02
      1.99664105e-02 7.27747707e-03 1.75405852e-02 4.47844714e-03
      5.22485515e-03 5.78466104e-03 2.64974795e-02 6.53106906e-03
      4.29184549e-03 -8.73114914e-11 4.85165138e-03 4.10524337e-03
      6.15786482e-03 7.27747707e-03 3.37749571e-02 2.03396156e-02
      1.34353423e-02 4.47844714e-03 1.47415558e-02 3.91864125e-03
      4.66504926e-03 5.22485515e-03 2.20190324e-02 1.88467987e-02
      1.15693221e-02 6.53106906e-03 2.70572864e-02 2.36984510e-02
      3.00429184e-02 3.78802009e-02 1.43870115e-01 8.75163227e-02
      8.49038959e-02 1.64209735e-02 9.44205970e-02 1.43683515e-02
      1.54879633e-02 1.25023322e-02 7.63202086e-02 1.28755365e-02
      1.47415558e-02 5.22485515e-03 1.82869937e-02 9.70330276e-03
      1.39951482e-02 1.43683515e-02 7.65068084e-02 2.55644694e-02
      2.35118493e-02 4.66504926e-03 2.05262173e-02 2.23922357e-03
      7.65068084e-03 5.41145727e-03 3.02295201e-02 1.17559247e-02
      1.58611685e-02 2.98563158e-03 1.95932072e-02 1.60477702e-02
      2.59376746e-02 2.79902965e-02 1.28382161e-01 9.21813771e-02
      1.01511471e-01 1.84735954e-02 7.40809813e-02 1.30621381e-02
      1.92200039e-02 1.28755365e-02 7.55738020e-02 1.82869937e-02
      2.72438880e-02 7.83728249e-03 3.78802009e-02 1.71673819e-02
      2.98563149e-02 3.75069976e-02 1.55439451e-01 1.08415745e-01
      8.73297229e-02 2.83634998e-02 6.77365139e-02 2.10860223e-02
      3.00429184e-02 2.76170913e-02 1.22224294e-01 8.24780688e-02
      6.81097209e-02 3.69471908e-02 1.20358273e-01 7.55738020e-02
      1.23157300e-01 1.54133230e-01 8.57995868e-01</_>
    <_>
      1. 1.81801572e-01 1.19678415e-01 9.20884311e-02 1.48364693e-01
      4.49479260e-02 9.44637284e-02 1.09263659e-01 1.38680786e-01
      2.99652833e-02 3.21578644e-02 2.37529688e-02 9.61081684e-02
      3.43504474e-02 9.51945856e-02 1.17303118e-01 2.00438514e-01
      4.05627601e-02 3.27060111e-02 2.24739630e-02 3.38023007e-02
      8.03946611e-03 1.99159514e-02 2.26566773e-02 9.17230025e-02
      2.15603877e-02 2.57628355e-02 1.55307874e-02 8.55106860e-02
      2.52146889e-02 8.03946629e-02 8.22218135e-02 1.22236431e-01
      2.63109803e-02 1.84542295e-02 1.66270789e-02 2.44838297e-02
      6.76046032e-03 1.53480722e-02 2.24739630e-02 2.86862776e-02
      8.77032708e-03 9.13575664e-03 7.85675086e-03 2.10122410e-02
      8.95304233e-03 3.36195864e-02 4.43997793e-02 1.02868624e-01
      2.08295267e-02 2.11949572e-02 2.11949572e-02 2.19258163e-02
      6.94317557e-03 2.28393935e-02 2.43011136e-02 7.94810876e-02
      2.00986657e-02 2.04640962e-02 1.88196599e-02 6.96144700e-02
      2.21085325e-02 7.52786398e-02 8.98958519e-02 1.54211581e-01
      3.45331617e-02 2.95998529e-02 2.15603877e-02 2.35702526e-02
      9.50118713e-03 1.60789322e-02 2.02813800e-02 2.74072718e-02
      8.03946611e-03 7.49132084e-03 5.11602405e-03 2.00986657e-02
      6.02959981e-03 1.80887990e-02 2.66764108e-02 4.78713661e-02
      8.40489659e-03 9.86661762e-03 6.02959981e-03 4.93330881e-03
      -2.91038305e-11 5.48145408e-03 7.30860559e-03 3.03307138e-02
      6.76046032e-03 7.12589035e-03 5.84688457e-03 1.86369438e-02
      4.38516354e-03 2.21085325e-02 3.43504474e-02 9.72044542e-02
      2.57628355e-02 1.84542295e-02 1.84542295e-02 1.49826417e-02
      7.12589035e-03 1.84542295e-02 1.80887990e-02 2.06468105e-02
      7.30860559e-03 4.20244830e-03 8.22218135e-03 2.02813800e-02
      4.75059357e-03 2.44838297e-02 2.90517081e-02 1.13831535e-01
      2.66764108e-02 2.19258163e-02 1.88196599e-02 2.08295267e-02
      6.57774508e-03 1.82715151e-02 2.57628355e-02 9.11748558e-02
      2.17431020e-02 3.03307138e-02 2.68591251e-02 6.17577173e-02
      2.52146889e-02 7.74712190e-02 1.26438886e-01 1.30093187e-01
      8.56934041e-02 2.68591251e-02 7.52786398e-02 2.63109803e-02
      2.37529688e-02 2.48492602e-02 8.58761147e-02 2.19258163e-02
      1.99159514e-02 5.84688457e-03 1.90023743e-02 1.90023743e-02
      1.58962179e-02 2.81381328e-02 9.99451801e-02 3.48985940e-02
      1.84542295e-02 6.21231459e-03 1.64443627e-02 4.75059357e-03
      4.56787832e-03 4.38516354e-03 1.86369438e-02 1.57135017e-02
      1.37036359e-02 3.83701804e-03 1.53480722e-02 1.80887990e-02
      1.95505209e-02 2.30221078e-02 8.82514119e-02 3.12442891e-02
      2.28393935e-02 4.56787832e-03 1.51653569e-02 6.02959981e-03
      4.01973305e-03 7.12589035e-03 2.48492602e-02 3.83701804e-03
      6.21231459e-03 2.37529678e-03 5.11602405e-03 2.74072704e-03
      6.02959981e-03 1.24246301e-02 4.11109067e-02 2.68591251e-02
      1.73579380e-02 3.65430280e-03 1.47999264e-02 4.38516354e-03
      5.11602405e-03 5.84688457e-03 2.43011136e-02 2.28393935e-02
      1.73579380e-02 6.94317557e-03 2.26566773e-02 2.08295267e-02
      2.13776715e-02 2.92344224e-02 1.39411658e-01 9.59254503e-02
      7.18070492e-02 1.62616484e-02 7.38169178e-02 1.37036359e-02
      1.68097932e-02 1.49826417e-02 7.10761920e-02 1.79060847e-02
      1.44344959e-02 6.21231459e-03 1.99159514e-02 1.29727749e-02
      1.64443627e-02 1.80887990e-02 8.16736668e-02 3.63603123e-02
      2.08295267e-02 6.39502984e-03 1.55307874e-02 4.38516354e-03
      4.20244830e-03 6.39502984e-03 2.13776715e-02 2.32048240e-02
      1.64443627e-02 6.94317557e-03 2.00986657e-02 1.64443627e-02
      1.80887990e-02 2.70418413e-02 1.15475968e-01 9.55600217e-02
      8.07600915e-02 2.15603877e-02 7.07107633e-02 1.42517807e-02
      1.95505209e-02 1.77233685e-02 8.02119449e-02 2.53974050e-02
      2.15603877e-02 1.07801938e-02 3.16097215e-02 2.22912468e-02
      2.63109803e-02 4.56787869e-02 1.68646082e-01 1.33382052e-01
      8.55106860e-02 4.05627601e-02 7.94810876e-02 2.19258163e-02
      2.66764108e-02 3.56294513e-02 1.15841404e-01 1.02685913e-01
      9.08094272e-02 4.58615012e-02 1.38498083e-01 9.57427323e-02
      1.16024114e-01 1.79060847e-01 8.26603293e-01</_>
    <_>
      1. 1.42569348e-01 1.17154807e-01 5.23787364e-02 1.24128312e-01
      3.85867022e-02 4.72648367e-02 4.61800694e-02 1.35440871e-01
      3.85867022e-02 3.09933349e-02 2.21602358e-02 4.38555703e-02
      3.06834020e-02 3.59522700e-02 7.06648082e-02 1.27847508e-01
      2.89787687e-02 2.26251353e-02 1.05377343e-02 3.13032679e-02
      9.60793439e-03 1.65814348e-02 1.56516340e-02 5.14489375e-02
      1.62715018e-02 1.70463342e-02 1.25523014e-02 2.43297685e-02
      1.56516340e-02 2.49496344e-02 4.89694700e-02 1.27072677e-01
      2.55695023e-02 2.60344017e-02 1.14675341e-02 2.29350682e-02
      1.00728339e-02 1.02278013e-02 1.48768015e-02 2.95986347e-02
      8.67813453e-03 9.14303400e-03 5.73376706e-03 1.47218341e-02
      6.04370050e-03 1.41019681e-02 3.34728025e-02 4.77297381e-02
      1.13125676e-02 1.17774680e-02 7.59336725e-03 1.03827678e-02
      8.52316711e-03 8.36820062e-03 1.39470007e-02 3.05284355e-02
      8.05826765e-03 1.06927007e-02 1.08476672e-02 2.15403680e-02
      1.45668676e-02 2.68092360e-02 6.16767369e-02 1.22733608e-01
      2.66542695e-02 2.86688358e-02 1.37920342e-02 2.46397015e-02
      9.14303400e-03 1.22423675e-02 1.20874010e-02 2.83589028e-02
      9.29800048e-03 6.81853388e-03 6.19866699e-03 8.52316711e-03
      7.74833420e-03 1.05377343e-02 1.98357347e-02 3.37827355e-02
      1.08476672e-02 8.98806751e-03 8.83310102e-03 1.06927007e-02
      3.09933373e-03 6.35363394e-03 8.05826765e-03 1.76662020e-02
      3.87416710e-03 6.97350083e-03 7.28343381e-03 9.60793439e-03
      9.14303400e-03 1.10026347e-02 3.05284355e-02 5.48582040e-02
      1.76662020e-02 1.19324345e-02 8.67813453e-03 1.23973340e-02
      5.88873401e-03 1.19324345e-02 1.64264683e-02 1.48768015e-02
      8.05826765e-03 6.50860043e-03 9.76290088e-03 7.28343381e-03
      9.29800048e-03 1.27072679e-02 4.01363708e-02 4.19959687e-02
      1.20874010e-02 1.85960010e-02 1.62715018e-02 1.64264683e-02
      8.83310102e-03 2.09205020e-02 2.82039363e-02 4.10661697e-02
      1.93708353e-02 2.01456677e-02 2.13854015e-02 2.54145358e-02
      3.03734690e-02 5.98171391e-02 1.26917705e-01 1.28467381e-01
      4.78847027e-02 2.92887017e-02 3.54873687e-02 2.52595693e-02
      1.73562672e-02 1.23973340e-02 4.13761027e-02 3.20781022e-02
      1.61165353e-02 9.45296790e-03 1.19324345e-02 1.25523014e-02
      1.78211685e-02 1.39470007e-02 6.04370050e-02 3.17681693e-02
      1.67364012e-02 9.91786737e-03 1.05377343e-02 6.97350083e-03
      3.87416710e-03 3.25430045e-03 1.58066005e-02 1.68913677e-02
      1.31721674e-02 6.66356739e-03 1.10026347e-02 1.08476672e-02
      1.19324345e-02 1.47218341e-02 5.68727702e-02 3.13032679e-02
      1.85960010e-02 6.50860043e-03 1.13125676e-02 4.64900024e-03
      3.87416710e-03 3.71920038e-03 1.62715018e-02 6.97350083e-03
      2.63443356e-03 1.16415322e-10 6.35363394e-03 3.56423366e-03
      6.50860043e-03 6.35363394e-03 3.68820690e-02 1.53417010e-02
      1.11576011e-02 3.56423366e-03 1.06927007e-02 5.26886713e-03
      4.80396720e-03 4.80396720e-03 2.15403680e-02 1.20874010e-02
      9.29800048e-03 5.11390064e-03 1.85960010e-02 9.60793439e-03
      1.99907012e-02 2.12304350e-02 1.04602508e-01 4.95893359e-02
      2.91337352e-02 1.41019681e-02 2.68092360e-02 9.14303400e-03
      8.21323413e-03 8.83310102e-03 3.11483014e-02 1.02278013e-02
      1.16225006e-02 3.56423366e-03 1.25523014e-02 4.80396720e-03
      1.45668676e-02 1.10026347e-02 6.52409717e-02 2.13854015e-02
      1.48768015e-02 5.11390064e-03 1.53417010e-02 5.11390064e-03
      6.19866699e-03 5.42383362e-03 2.49496344e-02 1.41019681e-02
      1.47218341e-02 7.12846732e-03 1.87509675e-02 1.06927007e-02
      1.98357347e-02 2.55695023e-02 1.11730978e-01 3.65721360e-02
      3.82767692e-02 1.54966675e-02 4.29257713e-02 8.05826765e-03
      1.20874010e-02 1.33271348e-02 6.36913031e-02 9.91786737e-03
      1.59615688e-02 5.57880057e-03 2.88238022e-02 8.21323413e-03
      2.80489679e-02 2.95986347e-02 1.83015645e-01 4.63350378e-02
      5.20688035e-02 2.32450012e-02 5.79575375e-02 1.53417010e-02
      2.74291020e-02 3.09933349e-02 1.12970710e-01 5.31535707e-02
      6.49310350e-02 3.53324041e-02 1.08321711e-01 4.72648367e-02
      1.07236944e-01 1.45048812e-01 8.58980298e-01</_>
    <_>
      9.99999940e-01 1.24423958e-01 1.13716453e-01 3.80862020e-02
      1.15613982e-01 3.17159109e-02 2.99539156e-02 1.87042542e-02
      1.04635395e-01 3.03605292e-02 2.24993210e-02 1.34182703e-02
      3.06316055e-02 1.36893457e-02 1.85687169e-02 2.75142305e-02
      1.06397390e-01 2.62943879e-02 2.06017885e-02 9.75874159e-03
      2.43968554e-02 7.31905643e-03 8.53889901e-03 7.72567047e-03
      2.98183784e-02 9.75874159e-03 6.64136605e-03 8.94551352e-03
      1.43670365e-02 9.48766526e-03 1.01653561e-02 3.34779061e-02
      9.94849503e-02 2.50745453e-02 1.93819460e-02 9.35212709e-03
      2.29059365e-02 6.77690376e-03 8.67443718e-03 8.40336084e-03
      2.41257790e-02 6.50582789e-03 4.33721859e-03 3.65952821e-03
      8.67443718e-03 1.89753307e-03 5.69259934e-03 1.51802646e-02
      2.64299251e-02 1.11141223e-02 4.74383263e-03 5.28598484e-03
      1.16562750e-02 3.25291394e-03 5.15044713e-03 9.21658985e-03
      1.28761176e-02 2.30414723e-03 5.15044713e-03 8.13228451e-03
      1.26050413e-02 9.75874159e-03 1.45025747e-02 4.45920303e-02
      1.13580912e-01 2.76497677e-02 2.23637838e-02 9.62320343e-03
      2.29059365e-02 6.37028972e-03 6.37028972e-03 6.23475155e-03
      2.14150175e-02 4.74383263e-03 5.42152300e-03 4.06614225e-03
      4.87937080e-03 6.91244192e-03 5.15044713e-03 1.09785842e-02
      2.58877724e-02 5.96367568e-03 4.20168042e-03 2.43968540e-03
      5.15044713e-03 2.30414723e-03 9.48766479e-04 3.38845188e-03
      7.31905643e-03 2.03307113e-03 1.49091880e-03 4.60829446e-03
      4.47275676e-03 2.57522333e-03 1.00298179e-02 2.11439412e-02
      2.81919204e-02 1.11141223e-02 7.72567047e-03 6.64136605e-03
      4.06614225e-03 4.60829446e-03 7.31905643e-03 1.05719706e-02
      5.69259934e-03 2.03307113e-03 1.62645685e-03 6.23475155e-03
      3.52399005e-03 4.87937080e-03 6.50582789e-03 2.88696103e-02
      1.72133371e-02 1.03008943e-02 6.23475155e-03 8.13228451e-03
      5.01490897e-03 4.74383263e-03 5.69259934e-03 1.88397933e-02
      1.17918132e-02 9.89427976e-03 8.53889901e-03 1.99240986e-02
      1.39604220e-02 1.95174832e-02 3.57820541e-02 9.63675752e-02
      1.12361066e-01 3.59175913e-02 2.54811589e-02 1.96530223e-02
      2.34480873e-02 1.04364324e-02 9.35212709e-03 1.35538084e-02
      2.08728649e-02 1.13851987e-02 7.04798009e-03 8.26782268e-03
      5.96367568e-03 5.42152300e-03 8.13228451e-03 2.29059365e-02
      2.31770109e-02 9.08105168e-03 3.79506615e-03 6.09921338e-03
      4.06614225e-03 4.74383263e-03 4.33721859e-03 1.16562750e-02
      6.91244192e-03 7.31905643e-03 3.79506615e-03 1.13851987e-02
      4.74383263e-03 1.16562750e-02 9.75874159e-03 3.83572765e-02
      2.38547027e-02 1.16562750e-02 8.67443718e-03 8.26782268e-03
      5.69259934e-03 5.01490897e-03 3.93060409e-03 1.21984268e-02
      7.31905643e-03 7.45459460e-03 3.79506615e-03 5.28598484e-03
      6.09921338e-03 1.07075088e-02 1.11141223e-02 3.19869854e-02
      1.40959602e-02 1.01653561e-02 4.20168042e-03 1.08430460e-02
      5.69259934e-03 4.06614225e-03 6.91244192e-03 2.23637838e-02
      4.74383263e-03 8.53889901e-03 3.38845188e-03 1.92464069e-02
      6.37028972e-03 1.72133371e-02 1.89753305e-02 8.70154500e-02
      2.95473021e-02 1.76199507e-02 9.89427976e-03 1.23339649e-02
      7.86120817e-03 5.96367568e-03 4.33721859e-03 1.65356454e-02
      7.86120817e-03 7.45459460e-03 2.03307113e-03 1.07075088e-02
      6.77690317e-04 7.72567047e-03 4.20168042e-03 4.54052575e-02
      1.00298179e-02 1.12496605e-02 -8.73114914e-11 1.15207369e-02
      1.08430453e-03 5.28598484e-03 4.60829446e-03 1.80265643e-02
      5.82813751e-03 1.00298179e-02 1.76199502e-03 1.85687169e-02
      7.86120817e-03 2.08728649e-02 1.74844116e-02 9.63675752e-02
      1.49091892e-02 2.11439412e-02 8.67443718e-03 2.35836264e-02
      4.87937080e-03 1.03008943e-02 5.01490897e-03 3.98481973e-02
      6.09921338e-03 1.49091892e-02 4.06614225e-03 2.79208440e-02
      5.96367568e-03 2.98183784e-02 2.60233115e-02 2.11439401e-01
      1.66711845e-02 3.07671446e-02 1.03008943e-02 3.94415818e-02
      4.87937080e-03 2.07373258e-02 1.51802646e-02 1.05584167e-01
      1.96530223e-02 4.31011096e-02 1.99240986e-02 9.35212746e-02
      2.68365405e-02 1.01111405e-01 1.17647052e-01 8.30306292e-01</_>
    <_>
      1. 1.45933911e-01 1.18640922e-01 9.59896073e-02 1.97363541e-01
      2.69216485e-02 1.07872263e-01 1.30152255e-01 1.10842928e-01
      1.55959902e-02 2.24656519e-02 1.57816559e-02 1.03230603e-01
      1.52246570e-02 7.96509460e-02 7.46379495e-02 1.45191237e-01
      1.76383220e-02 1.59673225e-02 1.37393242e-02 3.58336419e-02
      3.71333072e-03 1.91236548e-02 1.46676572e-02 1.01930931e-01
      1.46676572e-02 1.98663212e-02 1.94949880e-02 1.41477913e-01
      1.93093214e-02 9.09766108e-02 6.20126277e-02 1.35165244e-01
      2.15373188e-02 1.98663212e-02 1.70813221e-02 2.58076508e-02
      3.71333072e-03 1.52246570e-02 3.06349806e-02 1.98663212e-02
      5.56999526e-04 3.15633113e-03 3.71333072e-03 1.78239886e-02
      3.15633113e-03 1.74526554e-02 2.32083183e-02 1.11585595e-01
      1.50389904e-02 1.72669888e-02 1.48533238e-02 3.19346450e-02
      2.22799834e-03 1.33679910e-02 2.19086520e-02 1.01559602e-01
      1.57816559e-02 2.11659856e-02 1.91236548e-02 1.25324920e-01
      1.54103236e-02 6.25696257e-02 6.36836290e-02 2.02933535e-01
      3.84329744e-02 2.85926480e-02 2.46936511e-02 2.74786483e-02
      6.86966209e-03 1.76383220e-02 1.91236548e-02 2.59933174e-02
      5.19866310e-03 7.05532869e-03 7.24099530e-03 1.87523216e-02
      5.19866310e-03 1.05829928e-02 1.65243223e-02 3.54623087e-02
      4.64166375e-03 4.64166375e-03 5.75566292e-03 7.24099530e-03
      1.85666536e-03 5.94132952e-03 6.49832888e-03 2.20943186e-02
      6.86966209e-03 5.01299649e-03 5.75566292e-03 2.24656519e-02
      7.42666190e-03 1.48533238e-02 2.15373188e-02 1.06758267e-01
      2.43223179e-02 2.15373188e-02 2.04233192e-02 2.02376544e-02
      4.82732989e-03 1.87523216e-02 2.35796515e-02 2.30226517e-02
      5.75566292e-03 8.54066107e-03 9.46899410e-03 1.72669888e-02
      4.82732989e-03 1.83809884e-02 2.91496478e-02 1.42591909e-01
      2.43223179e-02 3.00779808e-02 2.54363175e-02 2.61789840e-02
      4.82732989e-03 2.17229854e-02 2.67359819e-02 1.12513930e-01
      1.98663212e-02 3.47196460e-02 4.90159690e-02 6.88822865e-02
      2.35796515e-02 6.83252886e-02 1.06943928e-01 1.03787601e-01
      1.00445606e-01 2.11659856e-02 9.13479403e-02 2.82213148e-02
      2.46936511e-02 2.13516522e-02 1.15298927e-01 1.50389904e-02
      1.83809884e-02 1.02116596e-02 2.46936511e-02 1.85666550e-02
      1.68956555e-02 1.33679910e-02 5.86706288e-02 1.94949880e-02
      1.18826590e-02 4.27033054e-03 1.18826590e-02 6.12699613e-03
      4.27033054e-03 4.45599714e-03 1.29966587e-02 1.52246570e-02
      1.28109921e-02 3.71333072e-03 1.74526554e-02 3.91756408e-02
      2.22799852e-02 2.37653181e-02 7.24099502e-02 2.04233192e-02
      1.46676572e-02 2.59933155e-03 1.83809884e-02 7.98366126e-03
      4.45599714e-03 4.82732989e-03 3.91756408e-02 3.15633113e-03
      1.48533226e-03 -1.16415322e-10 1.24396589e-02 5.19866310e-03
      4.64166375e-03 5.56999631e-03 3.82473096e-02 1.94949880e-02
      1.67099889e-02 3.89899733e-03 2.58076508e-02 5.01299649e-03
      4.27033054e-03 6.86966209e-03 3.88043076e-02 2.45079845e-02
      2.52506509e-02 1.20683257e-02 5.62569648e-02 4.08466421e-02
      4.28889729e-02 4.67879698e-02 1.88265875e-01 9.33902711e-02
      1.40363917e-01 1.78239886e-02 1.05272934e-01 1.57816559e-02
      1.89379882e-02 1.44819906e-02 6.77682906e-02 2.06089858e-02
      3.28629799e-02 4.64166375e-03 3.41626443e-02 1.59673225e-02
      2.30226517e-02 2.13516522e-02 6.08986281e-02 1.54103236e-02
      1.50389904e-02 4.08466393e-03 1.26253255e-02 1.11399917e-03
      3.52766435e-03 4.08466393e-03 2.00519878e-02 1.48533238e-02
      2.65503153e-02 3.15633113e-03 4.01039757e-02 2.11659856e-02
      3.17489803e-02 2.93353144e-02 1.14927590e-01 8.52209479e-02
      9.69179347e-02 1.83809884e-02 5.99702932e-02 1.72669888e-02
      1.44819906e-02 1.74526554e-02 7.09246248e-02 1.85666550e-02
      3.39769796e-02 9.84032732e-03 4.25176397e-02 2.22799852e-02
      3.43483128e-02 3.88043076e-02 1.41292244e-01 8.96769390e-02
      5.75566292e-02 2.67359819e-02 7.40809515e-02 1.20683257e-02
      1.81953218e-02 2.58076508e-02 1.22911252e-01 5.23579679e-02
      7.40809515e-02 2.87783146e-02 1.76383227e-01 7.66802877e-02
      1.27738580e-01 1.53360575e-01 9.33531404e-01</_>
    <_>
      9.99999940e-01 1.63831502e-01 1.11988656e-01 1.16646409e-01
      1.92993104e-01 2.93641146e-02 1.10976100e-01 1.79829881e-01
      1.14823811e-01 1.68084241e-02 2.20737141e-02 1.64034013e-02
      1.16848923e-01 1.94410682e-02 1.10571079e-01 1.24341838e-01
      1.67679220e-01 1.80234909e-02 1.49858240e-02 1.13406237e-02
      3.70595381e-02 1.62008917e-03 1.94410682e-02 1.70109347e-02
      1.17456459e-01 1.23531790e-02 2.00486016e-02 1.59983803e-02
      1.97245836e-01 1.74159575e-02 1.31227210e-01 6.78412318e-02
      1.26164436e-01 1.82260014e-02 2.04536244e-02 1.35682458e-02
      2.71364916e-02 4.25273366e-03 2.08586473e-02 3.19967605e-02
      1.90360472e-02 3.24017811e-03 3.44268931e-03 2.63264473e-03
      1.80234909e-02 3.84771149e-03 1.86310243e-02 3.48319151e-02
      1.24746859e-01 1.49858240e-02 1.70109347e-02 1.23531790e-02
      2.49088686e-02 4.05022269e-03 2.24787351e-02 2.93641146e-02
      1.29404619e-01 1.11381123e-02 2.81490479e-02 2.61239354e-02
      1.76994726e-01 1.39732677e-02 9.61927846e-02 9.39651653e-02
      2.09396511e-01 4.13122699e-02 2.99716480e-02 3.11867148e-02
      3.17942463e-02 5.46780042e-03 1.57958679e-02 1.94410682e-02
      2.79465355e-02 4.05022269e-03 5.26528945e-03 5.26528945e-03
      1.72134470e-02 2.83515593e-03 1.37707572e-02 1.29607124e-02
      3.34143378e-02 3.44268931e-03 6.68286718e-03 4.65775607e-03
      6.07533380e-03 5.82076609e-11 4.25273366e-03 3.03766713e-03
      2.91616023e-02 3.24017811e-03 3.03766713e-03 5.87282283e-03
      1.82260014e-02 1.82260026e-03 1.41757792e-02 1.49858240e-02
      1.18469015e-01 2.30862685e-02 2.26812474e-02 1.59983803e-02
      1.86310243e-02 4.65775607e-03 1.70109347e-02 2.83515584e-02
      2.18712017e-02 4.05022269e-03 4.05022269e-03 6.07533380e-03
      1.70109347e-02 7.89793395e-03 1.92385577e-02 3.03766690e-02
      1.88942879e-01 1.82260014e-02 3.50344256e-02 2.20737141e-02
      2.04536244e-02 4.45524510e-03 2.95666251e-02 3.90846469e-02
      1.67274192e-01 1.31632239e-02 4.07047383e-02 4.23248261e-02
      9.01174545e-02 1.68084241e-02 9.72053409e-02 1.19684078e-01
      1.12798698e-01 1.09963544e-01 1.88335348e-02 1.22924253e-01
      3.09842024e-02 3.17942463e-02 1.94410682e-02 1.44592941e-01
      1.78209804e-02 1.90360472e-02 4.05022269e-03 2.36938018e-02
      1.94410682e-02 1.96435805e-02 2.51113810e-02 8.58647227e-02
      2.04536244e-02 1.39732677e-02 2.63264473e-03 1.31632239e-02
      8.50546733e-03 3.03766713e-03 3.44268931e-03 1.57958679e-02
      1.47833126e-02 1.64034013e-02 6.48035621e-03 1.94410682e-02
      3.94896716e-02 2.83515584e-02 3.48319151e-02 9.31551233e-02
      1.84285138e-02 1.96435805e-02 3.44268931e-03 2.12636683e-02
      4.86026704e-03 5.26528945e-03 5.87282283e-03 3.78695801e-02
      2.63264473e-03 3.64520052e-03 1.01255567e-03 1.05305789e-02
      2.22762255e-03 5.87282283e-03 7.89793395e-03 5.10328040e-02
      1.82260014e-02 1.62008908e-02 7.89793395e-03 2.79465355e-02
      5.87282283e-03 6.07533380e-03 5.67031186e-03 4.02997136e-02
      2.28837579e-02 2.47063581e-02 9.31551214e-03 5.54880500e-02
      4.75901142e-02 3.78695801e-02 3.50344256e-02 2.30660185e-01
      1.15431346e-01 1.73957065e-01 1.96435805e-02 1.63021460e-01
      1.98460910e-02 1.84285138e-02 1.66059136e-02 9.27500948e-02
      2.10611578e-02 3.78695801e-02 2.83515593e-03 4.31348719e-02
      1.55933574e-02 2.85540689e-02 2.14661807e-02 8.78898278e-02
      2.22762246e-02 1.51883345e-02 4.86026704e-03 1.57958679e-02
      3.44268931e-03 1.01255567e-03 4.45524510e-03 1.41757792e-02
      2.08586473e-02 2.55164020e-02 2.43013352e-03 3.74645591e-02
      2.93641146e-02 3.66545133e-02 3.07816919e-02 1.20291613e-01
      1.09761037e-01 1.34467393e-01 1.94410682e-02 8.91048983e-02
      1.57958679e-02 1.31632239e-02 2.28837579e-02 9.29526091e-02
      2.12636683e-02 3.48319151e-02 6.27784524e-03 3.50344256e-02
      1.98460910e-02 2.93641146e-02 3.42243798e-02 1.42567843e-01
      1.16038881e-01 7.75617659e-02 3.30093130e-02 9.29526091e-02
      1.31632239e-02 1.45808011e-02 2.67314687e-02 1.21101655e-01
      8.89023840e-02 9.17375460e-02 3.60469818e-02 2.23572284e-01
      1.02875657e-01 1.15836367e-01 1.54718503e-01 8.87808800e-01</_>
    <_>
      1. 1.75881952e-01 9.49796513e-02 6.86906427e-02 1.24830395e-01
      4.10447754e-02 7.93758482e-02 1.07869744e-01 1.21947087e-01
      3.03595662e-02 2.86635011e-02 1.59430131e-02 9.04002711e-02
      2.69674361e-02 7.49660805e-02 8.83649960e-02 2.03697428e-01
      3.18860263e-02 3.00203543e-02 2.08616015e-02 2.08616015e-02
      6.44504791e-03 2.15400271e-02 2.00135689e-02 9.34531912e-02
      1.91655364e-02 1.71302576e-02 1.69606525e-02 8.83649960e-02
      1.91655364e-02 6.85210302e-02 6.20759837e-02 9.51492563e-02
      2.59497967e-02 1.06852110e-02 1.27204889e-02 1.39077343e-02
      8.81953910e-03 1.15332436e-02 2.73066498e-02 1.83175039e-02
      4.91858926e-03 3.39213060e-03 6.10583462e-03 1.39077343e-02
      5.76662179e-03 1.69606525e-02 4.61329706e-02 8.31071958e-02
      1.78086851e-02 1.50949797e-02 1.37381284e-02 9.15875193e-03
      1.35685236e-03 8.81953910e-03 2.10312083e-02 4.86770719e-02
      7.29308045e-03 1.23812761e-02 1.71302576e-02 3.49389426e-02
      9.15875193e-03 4.00271378e-02 6.93690628e-02 1.28052920e-01
      2.42537316e-02 1.47557668e-02 7.97150657e-03 1.93351433e-02
      4.24016314e-03 1.44165540e-02 1.45861609e-02 1.88263226e-02
      3.90095008e-03 4.07055672e-03 6.78426295e-04 1.15332436e-02
      4.07055672e-03 1.59430131e-02 1.59430131e-02 3.76526453e-02
      3.39213060e-03 6.61465432e-03 4.07055672e-03 5.08819567e-03
      2.18278728e-10 3.73134366e-03 7.29308045e-03 1.89959295e-02
      4.74898284e-03 5.08819567e-03 3.73134366e-03 1.13636367e-02
      5.59701538e-03 1.89959295e-02 2.42537316e-02 8.19199458e-02
      1.69606525e-02 1.33989146e-02 8.98914598e-03 8.81953910e-03
      3.22252396e-03 8.64993222e-03 1.39077343e-02 1.27204889e-02
      4.74898284e-03 4.74898284e-03 2.71370448e-03 9.66757163e-03
      5.08819567e-03 1.88263226e-02 3.73134352e-02 1.38907731e-01
      1.83175039e-02 3.27340588e-02 2.54409779e-02 1.37381284e-02
      3.90095008e-03 2.12008152e-02 3.10379919e-02 7.31004104e-02
      1.18724564e-02 2.66282223e-02 2.57801898e-02 3.44301239e-02
      1.69606525e-02 7.22523779e-02 1.45013571e-01 1.20251022e-01
      8.92130286e-02 1.93351433e-02 5.95318861e-02 2.13704221e-02
      2.27272734e-02 2.06919946e-02 6.36024401e-02 2.49321572e-02
      1.89959295e-02 8.14111251e-03 1.71302576e-02 2.13704221e-02
      1.76390782e-02 2.32360922e-02 6.39416575e-02 3.23948450e-02
      1.78086851e-02 8.14111251e-03 1.89959295e-02 8.14111251e-03
      4.74898284e-03 5.25780208e-03 2.15400271e-02 2.78154686e-02
      1.72998644e-02 9.83717851e-03 1.81478970e-02 2.00135689e-02
      1.83175039e-02 2.86635011e-02 6.78426027e-02 2.13704221e-02
      1.67910457e-02 2.71370448e-03 1.45861609e-02 4.24016314e-03
      6.10583462e-03 6.61465432e-03 2.79850755e-02 5.93622820e-03
      3.90095008e-03 3.39213235e-04 6.44504791e-03 3.39213060e-03
      8.64993222e-03 1.25508821e-02 5.46132997e-02 1.59430131e-02
      1.20420624e-02 5.93622820e-03 2.06919946e-02 1.86567195e-03
      3.73134366e-03 7.46268686e-03 2.30664872e-02 1.57734063e-02
      1.28900958e-02 7.46268686e-03 2.35753059e-02 1.35685215e-02
      1.88263226e-02 2.03527827e-02 1.17876530e-01 1.02442339e-01
      8.59905034e-02 1.56037994e-02 3.42605151e-02 1.66214388e-02
      1.67910457e-02 1.52645865e-02 3.39213051e-02 1.57734063e-02
      1.93351433e-02 3.90095008e-03 1.17028495e-02 1.62822250e-02
      1.72998644e-02 2.74762549e-02 5.29172346e-02 2.69674361e-02
      1.42469471e-02 3.56173702e-03 1.47557668e-02 5.08819567e-03
      3.90095008e-03 7.12347403e-03 1.69606525e-02 1.69606525e-02
      1.18724564e-02 1.10244239e-02 2.44233385e-02 1.78086851e-02
      2.15400271e-02 3.86702865e-02 9.19267312e-02 8.87042060e-02
      7.14043453e-02 1.89959295e-02 2.66282223e-02 1.35685215e-02
      1.42469471e-02 1.71302576e-02 6.76729977e-02 1.93351433e-02
      2.39145197e-02 1.03459973e-02 2.59497967e-02 2.12008152e-02
      3.12075987e-02 5.08819558e-02 1.82157397e-01 1.04477614e-01
      6.29240200e-02 3.71438265e-02 7.32700154e-02 1.27204889e-02
      1.91655364e-02 3.62957940e-02 1.42808691e-01 6.27544075e-02
      5.91926724e-02 4.81682494e-02 1.35006785e-01 5.42740859e-02
      8.53120759e-02 2.11329713e-01 8.87550890e-01</_>
    <_>
      1. 1.34772107e-01 1.14548750e-01 5.49351051e-02 1.54844552e-01
      3.09387259e-02 4.25596163e-02 2.79203150e-02 1.07606404e-01
      2.38454584e-02 1.85632352e-02 7.09326891e-03 4.10504080e-02
      1.44883795e-02 2.15816479e-02 2.29399335e-02 1.30395412e-01
      2.97313612e-02 3.10896467e-02 1.20736491e-02 2.88258381e-02
      6.03682455e-03 1.44883795e-02 1.16208876e-02 4.46725041e-02
      1.29791731e-02 1.04135228e-02 9.05523729e-03 2.92786006e-02
      6.94234809e-03 2.05252040e-02 2.52037439e-02 1.13039546e-01
      2.35436168e-02 2.38454584e-02 1.47902202e-02 2.77693942e-02
      4.22577700e-03 1.52429827e-02 1.08662844e-02 1.72049496e-02
      4.67853900e-03 2.71657086e-03 1.50920602e-03 9.96076036e-03
      6.03682245e-04 1.05644427e-02 1.52429827e-02 4.37669791e-02
      1.04135228e-02 1.34319346e-02 1.40356170e-02 1.10172052e-02
      1.50920602e-03 1.31300939e-02 1.31300939e-02 2.56565046e-02
      7.54603092e-03 1.40356170e-02 1.10172052e-02 2.95804404e-02
      1.08662844e-02 3.57681848e-02 4.87473607e-02 1.53788105e-01
      3.50135826e-02 3.09387259e-02 2.18834896e-02 3.42589803e-02
      1.17718084e-02 1.13190459e-02 1.14699667e-02 2.53546648e-02
      5.43314219e-03 3.01841227e-03 4.37669782e-03 1.31300939e-02
      4.22577700e-03 9.20615718e-03 8.75339564e-03 2.59583462e-02
      7.99879245e-03 3.16933286e-03 3.01841227e-03 6.79142773e-03
      -2.03726813e-10 2.86749145e-03 1.35828531e-03 1.22245699e-02
      5.43314219e-03 3.77301523e-03 5.58406254e-03 1.08662844e-02
      6.33866573e-03 1.26773315e-02 1.97706018e-02 4.61817086e-02
      1.59975849e-02 1.73558705e-02 1.55448234e-02 1.19227283e-02
      2.41472968e-03 9.65891965e-03 1.23754907e-02 9.80984047e-03
      6.03682455e-03 1.66012661e-03 1.07153635e-02 1.11681260e-02
      3.92393582e-03 1.19227283e-02 1.93178393e-02 3.41080613e-02
      1.13190459e-02 1.20736491e-02 1.79595537e-02 8.45155492e-03
      4.52761818e-03 1.38846971e-02 2.26380918e-02 2.56565046e-02
      1.61485057e-02 2.17325687e-02 2.80712359e-02 2.42982190e-02
      2.11288873e-02 5.32749780e-02 1.06549956e-01 1.03531547e-01
      4.95019630e-02 2.11288873e-02 3.22970115e-02 3.41080613e-02
      1.79595537e-02 1.69031098e-02 2.98822820e-02 2.12798063e-02
      1.55448234e-02 3.16933286e-03 1.47902202e-02 1.22245699e-02
      1.64503474e-02 1.32810147e-02 3.84847596e-02 2.53546648e-02
      1.38846971e-02 6.64050691e-03 1.05644427e-02 7.69695127e-03
      6.18774537e-03 3.16933286e-03 1.78086329e-02 1.58466641e-02
      1.08662844e-02 7.54603092e-03 1.32810147e-02 1.23754907e-02
      1.44883795e-02 1.78086329e-02 5.90099618e-02 2.17325687e-02
      1.23754907e-02 2.86749145e-03 1.69031098e-02 4.98038018e-03
      5.13130100e-03 7.69695127e-03 1.69031098e-02 5.43314219e-03
      5.58406254e-03 6.03682245e-04 9.05523729e-03 4.98038018e-03
      4.98038018e-03 5.28222136e-03 3.41080613e-02 1.11681260e-02
      1.22245699e-02 2.11288850e-03 1.31300939e-02 4.37669782e-03
      4.22577700e-03 6.03682455e-03 2.73166317e-02 1.07153635e-02
      1.01116812e-02 6.18774537e-03 2.61092670e-02 1.58466641e-02
      2.61092670e-02 2.94295214e-02 1.56655610e-01 5.07093295e-02
      3.41080613e-02 1.01116812e-02 3.04859653e-02 1.78086329e-02
      7.24418974e-03 9.50799882e-03 3.32025364e-02 1.61485057e-02
      1.41865378e-02 3.62209463e-03 1.75067913e-02 1.29791731e-02
      1.90159976e-02 1.28282523e-02 6.06700890e-02 1.08662844e-02
      8.30063410e-03 3.01841035e-04 9.05523729e-03 1.20736472e-03
      4.67853900e-03 2.56565027e-03 1.93178393e-02 1.43374586e-02
      9.35707800e-03 4.22577700e-03 2.44491398e-02 1.75067913e-02
      2.18834896e-02 1.97706018e-02 1.05795354e-01 2.85239965e-02
      2.56565046e-02 9.96076036e-03 4.13522497e-02 5.73498337e-03
      1.25264116e-02 1.34319346e-02 5.90099618e-02 9.20615718e-03
      1.35828555e-02 3.47117404e-03 3.42589803e-02 1.11681260e-02
      2.92786006e-02 2.55055837e-02 1.34470269e-01 2.64111087e-02
      2.79203150e-02 1.01116812e-02 5.87081201e-02 1.55448234e-02
      1.66012682e-02 1.69031098e-02 1.00211293e-01 3.38062197e-02
      5.34259006e-02 2.67129503e-02 1.44883797e-01 5.05584069e-02
      1.05644435e-01 1.23000301e-01 9.22728658e-01</_>
    <_>
      1. 7.46561885e-02 9.30935442e-02 5.89390956e-02 2.45126188e-01
      2.44823936e-02 4.33731303e-02 3.26431915e-02 9.86852050e-02
      6.04503555e-03 1.63215958e-02 7.10291695e-03 4.44310121e-02
      3.77814705e-03 1.20900711e-02 9.82318260e-03 8.00967216e-02
      4.23152465e-03 8.16079788e-03 1.81351067e-03 3.17364372e-02
      1.51125831e-04 3.62702133e-03 3.62702133e-03 6.89134076e-02
      4.68490273e-03 8.00967216e-03 4.38265083e-03 4.53377664e-02
      2.11576233e-03 1.11833159e-02 1.11833159e-02 1.10624149e-01
      6.34728745e-03 1.01254340e-02 7.85854645e-03 3.61190885e-02
      3.02251778e-03 6.19616127e-03 5.44053176e-03 4.17107455e-02
      1.66238472e-03 4.83602844e-03 3.17364372e-03 1.94952395e-02
      -5.82076609e-11 3.92927323e-03 3.62702133e-03 7.91899636e-02
      4.08039894e-03 7.55629456e-03 3.47589538e-03 3.03763039e-02
      1.96463661e-03 6.95179077e-03 6.34728745e-03 1.97823793e-01
      1.51125891e-02 3.08296811e-02 2.38778908e-02 1.68505371e-01
      1.87396109e-02 4.12573665e-02 4.03506123e-02 2.60389894e-01
      2.72026602e-02 3.85371000e-02 3.20386887e-02 1.20598458e-01
      1.94952395e-02 2.56914012e-02 2.41801422e-02 3.95949818e-02
      3.17364372e-03 5.89390937e-03 3.47589538e-03 2.46335194e-02
      3.02251778e-03 4.53377655e-03 6.04503555e-03 3.06785554e-02
      1.51125831e-04 1.36013294e-03 1.96463661e-03 1.64727215e-02
      6.04503497e-04 1.66238472e-03 2.26688827e-03 2.53891498e-02
      1.20900711e-03 3.02251778e-03 3.62702133e-03 2.99229268e-02
      2.72026588e-03 7.10291695e-03 1.08810635e-02 5.15339263e-02
      4.53377655e-03 6.04503555e-03 6.34728745e-03 2.62959041e-02
      4.08039894e-03 6.19616127e-03 6.49841316e-03 2.19132546e-02
      1.05788116e-03 -5.82076609e-11 1.66238472e-03 1.96463652e-02
      3.77814705e-03 3.62702133e-03 4.38265083e-03 4.29197513e-02
      5.13828034e-03 6.64953887e-03 4.53377655e-03 2.87139192e-02
      4.38265083e-03 4.38265083e-03 6.95179077e-03 1.48707882e-01
      2.08553728e-02 3.32476944e-02 3.92927304e-02 2.04926699e-01
      3.17364372e-02 5.48586994e-02 7.42028132e-02 1.00196466e-01
      6.40773773e-02 4.05017398e-02 1.71527877e-01 3.35499458e-02
      3.06785554e-02 2.16110013e-02 1.43720716e-01 1.11833159e-02
      7.55629456e-03 7.70742027e-03 2.72026602e-02 5.59165794e-03
      5.13828034e-03 4.83602844e-03 3.68747152e-02 7.85854645e-03
      6.19616127e-03 3.47589538e-03 1.82862319e-02 2.56913994e-03
      2.87139183e-03 2.72026588e-03 2.07042471e-02 8.61417595e-03
      6.19616127e-03 3.62702133e-03 2.32733861e-02 9.21867881e-03
      7.40516838e-03 6.34728745e-03 4.39776331e-02 1.46592110e-02
      7.10291695e-03 7.10291695e-03 2.90161707e-02 8.16079788e-03
      8.31192359e-03 1.96463661e-03 3.21898125e-02 9.52093117e-03
      5.28940605e-03 2.72026588e-03 1.82862319e-02 2.56913994e-03
      4.53377655e-03 3.02251778e-03 1.84373576e-02 1.16366930e-02
      7.40516838e-03 4.98715416e-03 2.58425269e-02 6.95179077e-03
      5.44053176e-03 3.02251778e-03 3.53634581e-02 3.40033248e-02
      3.41544524e-02 1.70772262e-02 1.60646826e-01 3.67235914e-02
      3.85371000e-02 2.65981555e-02 2.80943036e-01 4.85114120e-02
      4.09551151e-02 2.14598756e-02 1.55659661e-01 2.38778908e-02
      2.78071631e-02 1.81351062e-02 1.70318872e-01 3.77814705e-03
      6.34728745e-03 9.06755275e-04 3.17364372e-02 4.83602844e-03
      5.74278366e-03 6.04503497e-04 5.28940596e-02 3.32476944e-03
      2.87139183e-03 3.02251719e-04 1.76817290e-02 1.36013294e-03
      2.11576233e-03 1.51125831e-04 3.02251782e-02 5.13828034e-03
      4.53377655e-03 1.05788116e-03 3.68747152e-02 5.28940605e-03
      9.67205688e-03 4.98715416e-03 7.25404248e-02 1.36013301e-02
      1.22411968e-02 3.32476944e-03 4.08039913e-02 6.49841316e-03
      8.61417595e-03 3.77814705e-03 5.01737967e-02 3.02251778e-03
      3.62702133e-03 -5.82076609e-11 2.13087499e-02 4.38265083e-03
      4.83602844e-03 3.02251778e-03 4.92670387e-02 1.26945749e-02
      9.82318260e-03 2.26688827e-03 4.00483608e-02 7.40516838e-03
      1.01254340e-02 3.62702133e-03 7.19359219e-02 4.09551151e-02
      4.86625358e-02 2.08553728e-02 2.78071642e-01 5.98458536e-02
      8.35726187e-02 5.47075719e-02 7.07571387e-01</_>
    <_>
      1. 1.01276182e-01 1.41688481e-01 5.61191104e-02 1.43979058e-01
      5.07198945e-02 6.26636147e-02 6.10274859e-02 1.52323306e-01
      2.01243460e-02 4.38481681e-02 1.60340313e-02 4.61387448e-02
      2.65052356e-02 3.41950282e-02 5.57918847e-02 9.34227780e-02
      1.11256549e-02 1.70157067e-02 5.23560215e-03 2.15968583e-02
      5.39921457e-03 8.67146626e-03 1.30890058e-02 4.09031436e-02
      4.09031427e-03 9.81675368e-03 7.52617791e-03 2.35602092e-02
      6.38089003e-03 1.88154448e-02 3.68128270e-02 1.36125654e-01
      1.97971202e-02 2.32329853e-02 9.65314172e-03 1.83246080e-02
      6.87172776e-03 8.67146626e-03 1.71793196e-02 2.99411006e-02
      3.92670184e-03 7.68979080e-03 2.29057600e-03 8.18062853e-03
      3.10863880e-03 5.56282746e-03 2.07787957e-02 4.25392687e-02
      2.78141373e-03 6.70811534e-03 1.63612573e-03 1.01439795e-02
      8.18062923e-04 5.89005230e-03 1.30890058e-02 3.81217264e-02
      3.10863880e-03 1.04712043e-02 5.39921457e-03 2.76505239e-02
      1.03075914e-02 1.86518319e-02 4.20484282e-02 1.50196344e-01
      2.61780117e-02 2.74869110e-02 1.48887439e-02 3.14136147e-02
      6.87172776e-03 1.16164926e-02 1.47251310e-02 2.94502620e-02
      2.78141373e-03 4.74476442e-03 5.07198973e-03 1.04712043e-02
      3.43586388e-03 3.76308919e-03 2.27421466e-02 4.71204184e-02
      6.38089003e-03 8.83507915e-03 2.78141373e-03 1.09620420e-02
      4.90837730e-04 5.07198973e-03 1.01439795e-02 2.45418847e-02
      5.23560215e-03 9.16230399e-03 9.16230399e-03 1.32526178e-02
      8.99869110e-03 1.19437175e-02 3.82853411e-02 5.62827215e-02
      9.16230399e-03 1.24345552e-02 6.70811534e-03 4.90837730e-03
      4.90837730e-03 5.39921457e-03 1.29253929e-02 1.66884810e-02
      2.12696334e-03 4.58115200e-03 4.09031427e-03 5.07198973e-03
      4.90837730e-03 3.76308919e-03 2.66688485e-02 5.95549755e-02
      1.39070684e-02 1.68520939e-02 1.16164926e-02 1.81609951e-02
      1.39070684e-02 8.01701564e-03 3.63219902e-02 6.75719902e-02
      2.01243460e-02 3.33769619e-02 4.04123031e-02 3.73036638e-02
      2.83049736e-02 3.59947644e-02 1.42342940e-01 1.69339001e-01
      4.87565435e-02 3.81217264e-02 3.91034037e-02 3.53403129e-02
      2.94502620e-02 2.11060215e-02 7.03534037e-02 3.69764417e-02
      1.14528798e-02 1.01439795e-02 1.73429325e-02 1.32526178e-02
      1.60340313e-02 1.37434555e-02 5.31740859e-02 2.45418847e-02
      3.92670184e-03 3.27225146e-03 3.27225146e-03 3.76308919e-03
      1.96335092e-03 2.94502638e-03 1.89790577e-02 1.09620420e-02
      1.96335092e-03 1.79973827e-03 8.01701564e-03 6.87172776e-03
      8.67146626e-03 8.18062853e-03 5.12107350e-02 3.68128270e-02
      1.25981681e-02 1.09620420e-02 1.19437175e-02 6.70811534e-03
      7.85340369e-03 5.89005230e-03 3.63219902e-02 6.21727761e-03
      4.90837730e-04 2.94502638e-03 8.99869110e-03 5.82076609e-11
      5.72643988e-03 6.21727761e-03 4.59751301e-02 2.04515718e-02
      6.87172776e-03 8.18062923e-04 9.48952883e-03 1.96335092e-03
      6.87172776e-03 1.30890054e-03 3.95942405e-02 1.14528798e-02
      7.52617791e-03 3.92670184e-03 3.40314135e-02 1.42342933e-02
      2.22513098e-02 1.94698963e-02 1.45942405e-01 4.35209423e-02
      2.19240841e-02 1.06348172e-02 3.01047117e-02 6.38089003e-03
      1.48887439e-02 3.43586388e-03 4.72840331e-02 1.07984291e-02
      6.21727761e-03 4.90837730e-04 1.68520939e-02 3.43586388e-03
      1.27617801e-02 6.38089003e-03 4.69568074e-02 2.27421466e-02
      3.10863880e-03 2.29057600e-03 5.56282746e-03 2.29057600e-03
      8.83507915e-03 8.18062923e-04 3.84489521e-02 1.07984291e-02
      7.68979080e-03 4.74476442e-03 2.87958123e-02 9.32591595e-03
      2.47054975e-02 1.78337693e-02 1.29908383e-01 3.35405767e-02
      1.91426706e-02 1.01439795e-02 1.94698963e-02 6.38089003e-03
      8.99869110e-03 3.76308919e-03 3.56675386e-02 8.99869110e-03
      5.56282746e-03 5.72643988e-03 2.01243460e-02 4.41753957e-03
      1.37434555e-02 1.45615181e-02 8.90052393e-02 6.20091632e-02
      3.68128270e-02 2.51963362e-02 4.33573313e-02 1.58704184e-02
      3.95942405e-02 2.55235601e-02 1.41361251e-01 5.38285337e-02
      4.77748699e-02 3.77945043e-02 1.46433249e-01 4.36845571e-02
      1.17473826e-01 8.73691142e-02 8.94797146e-01</_>
    <_>
      1. 4.80660200e-01 7.61920661e-02 7.00233430e-02 5.03501147e-02
      2.15071682e-02 6.63554519e-02 6.00200072e-02 8.20273384e-02
      4.91830595e-02 1.51717234e-02 1.58386119e-02 6.65221736e-02
      4.45148386e-02 2.77425796e-01 2.95098364e-01 4.94331449e-01
      1.63721234e-01 4.11803946e-02 2.71757245e-02 2.06735581e-02
      9.50316805e-03 3.58452797e-02 2.08402798e-02 6.66888952e-02
      2.95098368e-02 1.28376121e-02 1.43381124e-02 6.81893975e-02
      2.36745570e-02 2.87262410e-01 1.95565179e-01 7.55251721e-02
      4.26808931e-02 6.50216732e-03 7.50250090e-03 4.33477806e-03
      4.00133384e-03 7.33577833e-03 6.50216732e-03 1.28376121e-02
      7.00233411e-03 1.66722236e-03 1.33377791e-03 1.00033339e-02
      7.83594511e-03 3.15105021e-02 3.55118364e-02 6.40213415e-02
      2.48416141e-02 6.33544521e-03 5.00166696e-03 3.16772261e-03
      1.16705569e-03 7.00233411e-03 6.00200053e-03 1.55051686e-02
      7.83594511e-03 3.33444471e-03 3.00100027e-03 1.43381124e-02
      6.00200053e-03 6.21873960e-02 5.56852259e-02 5.36845624e-02
      2.00066678e-02 4.33477806e-03 5.33511164e-03 1.83394458e-03
      6.66888955e-04 4.50150063e-03 3.83461150e-03 2.83427816e-03
      1.16705569e-03 3.33444477e-04 6.66888955e-04 4.16805595e-03
      1.66722236e-03 1.28376121e-02 1.20040011e-02 2.11737249e-02
      7.00233411e-03 2.83427816e-03 2.00066692e-03 8.33611179e-04
      1.66722239e-04 1.16705569e-03 3.33444477e-04 3.00100027e-03
      1.00033346e-03 6.66888955e-04 1.66722239e-04 3.00100027e-03
      1.50050013e-03 1.53384460e-02 8.50283448e-03 6.48549497e-02
      4.21807282e-02 6.83561200e-03 7.16905622e-03 2.66755582e-03
      2.50083348e-03 8.00266769e-03 7.00233411e-03 1.10036675e-02
      6.00200053e-03 1.50050013e-03 3.00100027e-03 1.08369458e-02
      9.16972291e-03 3.61787267e-02 4.16805595e-02 6.61887303e-02
      2.43414473e-02 1.10036675e-02 7.33577833e-03 7.83594511e-03
      5.50183374e-03 1.00033339e-02 1.21707236e-02 2.08402798e-02
      9.50316805e-03 8.66955612e-03 8.83627869e-03 2.50083357e-02
      1.01700565e-02 7.28576183e-02 5.08502834e-02 8.73624533e-02
      7.61920661e-02 2.03401130e-02 2.08402798e-02 8.50283448e-03
      1.01700565e-02 1.60053354e-02 2.50083357e-02 1.35045014e-02
      1.41713899e-02 6.83561200e-03 9.00300127e-03 1.10036675e-02
      1.06702233e-02 3.40113379e-02 6.96898922e-02 5.06835617e-02
      2.73424480e-02 7.66922301e-03 7.50250090e-03 2.50083348e-03
      2.00066692e-03 4.66822274e-03 5.66855632e-03 1.01700565e-02
      6.16872264e-03 1.83394458e-03 3.50116706e-03 4.66822274e-03
      4.66822274e-03 3.16772237e-02 3.90130021e-02 1.66722238e-02
      1.58386119e-02 1.83394458e-03 4.33477806e-03 1.00033346e-03
      1.33377791e-03 3.50116706e-03 3.00100027e-03 2.83427816e-03
      1.83394458e-03 5.00166730e-04 8.33611179e-04 1.50050013e-03
      2.00066692e-03 7.83594511e-03 1.93397794e-02 1.80060025e-02
      1.50050018e-02 1.83394458e-03 4.16805595e-03 8.33611179e-04
      1.66722239e-04 1.50050013e-03 1.50050013e-03 4.16805595e-03
      4.16805595e-03 1.83394458e-03 1.83394458e-03 4.00133384e-03
      3.00100027e-03 1.61720570e-02 3.08436137e-02 7.95265064e-02
      6.53551146e-02 1.08369458e-02 1.65055022e-02 3.00100027e-03
      3.83461150e-03 8.16938933e-03 1.73391122e-02 7.33577833e-03
      7.83594511e-03 1.83394458e-03 2.66755582e-03 6.83561200e-03
      6.33544521e-03 3.00100036e-02 6.08536154e-02 4.38479483e-02
      2.60086693e-02 7.16905622e-03 4.00133384e-03 1.66722236e-03 0.
      6.33544521e-03 5.16838953e-03 7.66922301e-03 4.00133384e-03
      2.33411137e-03 4.16805595e-03 7.00233411e-03 4.33477806e-03
      3.90130021e-02 4.35145050e-02 2.86262095e-01 3.05101693e-01
      2.98432801e-02 6.06868938e-02 1.28376121e-02 1.80060025e-02
      3.00100036e-02 7.21907318e-02 2.88429465e-02 3.45115028e-02
      1.05035007e-02 1.63387787e-02 3.60120051e-02 3.68456133e-02
      2.99099684e-01 4.82994318e-01 2.99766570e-01 1.95231736e-01
      4.43481170e-02 5.15171699e-02 1.40046682e-02 1.20040011e-02
      4.11803946e-02 5.76858930e-02 6.13537841e-02 4.66822274e-02
      2.16738917e-02 3.10103372e-02 6.26875609e-02 4.23474498e-02
      4.69489813e-01 6.33711219e-01</_>
    <_>
      1. 4.29884195e-01 8.14188570e-02 1.03657417e-01 7.62727410e-02
      2.44440362e-02 9.57544595e-02 1.08252160e-01 8.43594894e-02
      3.17956246e-02 2.05844510e-02 2.40764562e-02 1.08435951e-01
      3.58389989e-02 3.64822626e-01 3.55449378e-01 4.31722105e-01
      1.55486122e-01 3.56552117e-02 3.27145755e-02 2.49954052e-02
      6.06506132e-03 3.71255279e-02 3.06928866e-02 1.12295531e-01
      3.23469937e-02 2.07682401e-02 2.70170923e-02 9.52030867e-02
      2.64657233e-02 3.56552094e-01 2.81014532e-01 8.28891769e-02
      3.10604665e-02 6.43264083e-03 6.24885131e-03 5.32990275e-03
      5.51369274e-04 7.90295936e-03 8.63811839e-03 6.80022035e-03
      3.30821541e-03 1.65410771e-03 1.28652819e-03 7.90295936e-03
      1.83789746e-03 2.24223491e-02 2.13196110e-02 1.08252160e-01
      3.38173136e-02 5.69748227e-03 6.80022035e-03 6.80022035e-03
      2.38926662e-03 5.69748227e-03 5.32990275e-03 2.59143542e-02
      8.63811839e-03 7.35158985e-03 4.41095373e-03 2.68333033e-02
      6.43264083e-03 7.18617886e-02 5.64234518e-02 8.16026479e-02
      2.29737181e-02 5.69748227e-03 5.14611276e-03 5.51369227e-03
      1.28652819e-03 3.49200517e-03 5.32990275e-03 5.88127179e-03
      2.38926662e-03 1.83789746e-03 9.18948732e-04 5.32990275e-03
      2.20547686e-03 1.43355997e-02 1.21301226e-02 2.53629852e-02
      6.24885131e-03 2.02168711e-03 9.18948732e-04 9.18948732e-04
      1.45519152e-11 1.10273843e-03 1.28652819e-03 5.51369227e-03
      1.83789746e-03 2.38926662e-03 2.02168711e-03 5.88127179e-03
      1.28652819e-03 1.56221278e-02 1.13949645e-02 1.05127737e-01
      2.90387794e-02 6.06506132e-03 1.24977026e-02 6.80022035e-03
      7.16779986e-03 1.41518107e-02 1.56221278e-02 1.17625436e-02
      8.63811839e-03 9.00569744e-03 7.16779986e-03 1.56221278e-02
      1.08435946e-02 3.74931060e-02 3.01415175e-02 1.22036390e-01
      3.63903679e-02 1.19463336e-02 9.55706649e-03 1.43355997e-02
      5.32990275e-03 1.26814926e-02 6.80022035e-03 3.45524736e-02
      1.10273845e-02 9.18948743e-03 8.63811839e-03 2.66495124e-02
      7.16779986e-03 6.57967255e-02 4.13526930e-02 8.41757059e-02
      1.05495311e-01 8.08674842e-03 2.88549904e-02 5.51369227e-03
      5.51369227e-03 9.18948743e-03 2.99577285e-02 9.74085648e-03
      6.43264083e-03 9.18948732e-04 6.06506132e-03 6.06506132e-03
      5.32990275e-03 2.49954052e-02 6.85535744e-02 2.92225685e-02
      3.38173136e-02 2.75684614e-03 6.06506132e-03 9.18948732e-04
      3.67579516e-04 2.57305638e-03 7.90295936e-03 5.69748227e-03
      5.88127179e-03 1.47031795e-03 7.16779986e-03 7.35158985e-03
      4.22716420e-03 2.22385582e-02 4.76015434e-02 2.05844510e-02
      2.35250872e-02 1.47031795e-03 5.14611276e-03 9.18948732e-04
      7.35158974e-04 7.35158974e-04 4.04337421e-03 1.10273843e-03
      1.28652819e-03 1.83789758e-04 5.51369274e-04 9.18948732e-04
      2.57305638e-03 8.27053841e-03 1.87465530e-02 2.49954052e-02
      2.84874104e-02 2.20547686e-03 4.96232323e-03 1.47031795e-03
      7.35158974e-04 1.10273843e-03 5.51369227e-03 5.69748227e-03
      4.59474372e-03 1.65410771e-03 5.51369227e-03 3.49200517e-03
      4.41095373e-03 1.59897078e-02 4.74177524e-02 1.03289835e-01
      1.03841208e-01 7.71916937e-03 2.09520310e-02 4.22716420e-03
      4.04337421e-03 1.06598055e-02 2.22385582e-02 6.98401034e-03
      8.45432840e-03 2.75684614e-03 4.59474372e-03 6.61643082e-03
      6.24885131e-03 2.88549904e-02 5.78937680e-02 3.45524736e-02
      2.72008814e-02 2.75684614e-03 4.96232323e-03 5.51369274e-04
      1.28652819e-03 3.30821541e-03 2.20547686e-03 7.35158985e-03
      4.59474372e-03 1.65410771e-03 4.59474372e-03 5.69748227e-03
      3.30821541e-03 2.53629852e-02 3.84120569e-02 3.50854605e-01
      3.60963047e-01 2.59143542e-02 6.12019859e-02 1.36004407e-02
      1.26814926e-02 3.21632065e-02 6.74508363e-02 2.79360414e-02
      2.11358201e-02 6.80022035e-03 1.52545488e-02 3.16118374e-02
      2.02168711e-02 4.19959575e-01 5.07994831e-01 3.75114858e-01
      2.87447155e-01 2.49954052e-02 4.70501743e-02 1.45193897e-02
      1.02922255e-02 2.07682401e-02 3.98823731e-02 7.24131614e-02
      5.14611267e-02 1.83789749e-02 4.70501743e-02 7.16779977e-02
      3.80444787e-02 5.03400087e-01 6.39220715e-01</_>
    <_>
      1. 3.85368288e-01 9.25680175e-02 7.81353712e-02 6.65228963e-02
      2.43861973e-02 8.69276747e-02 8.01260769e-02 8.26144665e-02
      3.74917053e-02 2.60451231e-02 1.84140671e-02 8.47710669e-02
      3.56668867e-02 2.84837425e-01 2.78367609e-01 3.93165231e-01
      1.43331125e-01 3.78234908e-02 2.52156612e-02 2.42203046e-02
      6.63569989e-03 3.64963524e-02 2.68745851e-02 7.59787634e-02
      3.03583276e-02 1.94094237e-02 1.97412074e-02 7.81353712e-02
      2.60451231e-02 3.10716659e-01 2.38055736e-01 8.54346380e-02
      3.63304578e-02 7.79694784e-03 8.29462521e-03 3.64963501e-03
      1.49303256e-03 9.45587270e-03 7.63105508e-03 8.46051797e-03
      3.98141984e-03 2.82017258e-03 2.48838752e-03 9.45587270e-03
      4.64498997e-03 3.03583276e-02 3.26808244e-02 7.53151998e-02
      2.57133376e-02 9.12408717e-03 4.81088273e-03 3.81552754e-03
      1.16124749e-03 1.02853356e-02 6.96748495e-03 2.45520901e-02
      7.46516278e-03 3.98141984e-03 3.98141984e-03 2.68745851e-02
      8.95819534e-03 6.56934306e-02 5.37491702e-02 5.14266752e-02
      2.20637023e-02 5.97213022e-03 4.47909767e-03 3.31784994e-03
      1.16124749e-03 7.29927002e-03 5.47445239e-03 5.97213022e-03
      1.82481750e-03 1.65892497e-03 2.15660245e-03 4.64498997e-03
      1.32714002e-03 1.74187124e-02 1.49303256e-02 2.50497684e-02
      1.01194428e-02 1.82481750e-03 1.49303256e-03 1.16124749e-03
      -2.91038305e-11 1.49303256e-03 2.48838752e-03 3.98141984e-03
      1.49303256e-03 6.63570012e-04 3.31784977e-04 5.64034516e-03
      1.65892497e-03 1.57597885e-02 1.62574649e-02 7.19973445e-02
      3.38420719e-02 7.29927002e-03 9.62176546e-03 3.15195741e-03
      2.32249498e-03 7.46516278e-03 4.81088273e-03 7.79694784e-03
      4.14731260e-03 2.65428005e-03 1.16124749e-03 1.17783677e-02
      4.31320490e-03 3.21831442e-02 3.26808244e-02 7.01725259e-02
      2.53815521e-02 7.79694784e-03 6.46980759e-03 4.64498997e-03
      1.32714002e-03 8.12873244e-03 7.63105508e-03 2.07365621e-02
      4.64498997e-03 6.46980759e-03 3.98141984e-03 2.04047784e-02
      8.46051797e-03 5.57398796e-02 5.27538173e-02 8.21167901e-02
      7.21632391e-02 1.01194428e-02 2.32249498e-02 4.31320490e-03
      6.46980759e-03 8.46051797e-03 2.04047784e-02 7.13337772e-03
      6.96748495e-03 1.99070992e-03 4.64498997e-03 8.12873244e-03
      8.29462521e-03 2.96947584e-02 7.11678863e-02 4.11413424e-02
      2.86994036e-02 3.81552754e-03 6.46980759e-03 2.48838752e-03
      2.32249498e-03 5.64034516e-03 7.13337772e-03 9.78765730e-03
      5.64034516e-03 1.65892497e-03 4.47909767e-03 1.01194428e-02
      6.30391529e-03 3.99800949e-02 6.03848696e-02 2.10683476e-02
      1.74187124e-02 4.47909767e-03 7.29927002e-03 2.48838752e-03
      3.31784994e-03 3.81552754e-03 7.79694784e-03 4.64498997e-03
      4.14731260e-03 2.82017258e-03 4.81088273e-03 4.81088273e-03
      4.47909767e-03 1.37690781e-02 2.45520901e-02 2.32249498e-02
      2.12342404e-02 5.64034516e-03 7.46516278e-03 3.81552754e-03
      5.47445239e-03 7.13337772e-03 7.79694784e-03 1.16124749e-02
      8.46051797e-03 6.80159265e-03 7.96283968e-03 9.28997993e-03
      8.12873244e-03 2.91970801e-02 4.84406091e-02 6.98407441e-02
      7.71400109e-02 1.04512274e-02 2.42203046e-02 8.95819534e-03
      5.30856010e-03 8.62640981e-03 2.04047784e-02 8.12873244e-03
      8.79230257e-03 1.82481750e-03 5.14266733e-03 6.80159265e-03
      5.97213022e-03 3.59986722e-02 6.53616488e-02 3.53351049e-02
      2.48838756e-02 5.47445239e-03 5.64034516e-03 1.65892497e-03
      1.32714002e-03 3.31784994e-03 5.64034516e-03 6.96748495e-03
      5.97213022e-03 1.49303256e-03 4.47909767e-03 9.28997993e-03
      3.81552754e-03 3.35102864e-02 4.92700748e-02 2.79197097e-01
      3.12707365e-01 2.67086923e-02 5.72329126e-02 1.42667554e-02
      1.34372925e-02 3.01924348e-02 6.03848696e-02 2.57133376e-02
      3.55009958e-02 9.95355006e-03 2.14001331e-02 3.55009958e-02
      3.33443917e-02 2.45189115e-01 4.15892512e-01 2.87325829e-01
      2.22295955e-01 2.67086923e-02 4.39615138e-02 1.29396152e-02
      1.06171202e-02 2.91970801e-02 4.51227613e-02 5.60716651e-02
      5.00995368e-02 2.28931662e-02 3.88188474e-02 6.46980777e-02
      5.15925698e-02 4.20039803e-01 6.30391538e-01</_>
    <_>
      1. 6.11609593e-02 6.79362714e-02 7.98388571e-02 4.97711033e-01
      1.97765976e-02 8.05713236e-02 8.13037902e-02 6.57388717e-02
      6.22596592e-03 4.39479947e-03 7.69089907e-03 8.60648230e-02
      5.85973263e-03 1.90441310e-02 2.41713971e-02 5.85973263e-02
      5.31038269e-03 3.47921625e-03 2.19739974e-03 1.92272477e-02
      1.46493316e-03 4.02856618e-03 2.74674967e-03 7.87401572e-02
      4.94414940e-03 7.32466578e-03 8.60648230e-03 7.14154914e-02
      2.56363302e-03 1.68467313e-02 1.68467313e-02 6.57388717e-02
      4.02856618e-03 6.59219921e-03 6.04284927e-03 3.77220288e-02
      9.15583223e-04 8.05713236e-03 6.95843250e-03 1.39168650e-02
      1.09869987e-03 1.09869987e-03 1.83116645e-03 1.81285478e-02
      1.09869987e-03 6.59219921e-03 6.04284927e-03 7.91063905e-02
      4.94414940e-03 6.77531585e-03 5.85973263e-03 3.68064456e-02
      1.09869987e-03 5.31038269e-03 6.04284927e-03 3.95165712e-01
      2.34389305e-02 3.09467129e-02 3.44259292e-02 4.50283825e-01
      1.77623145e-02 8.16700235e-02 7.58102909e-02 4.97711033e-01
      1.57480314e-02 3.82713787e-02 3.82713787e-02 1.96301043e-01
      9.33894888e-03 3.55246291e-02 2.72843800e-02 3.55246291e-02
      2.01428309e-03 3.11298296e-03 2.92986631e-03 3.02142464e-02
      2.38051638e-03 7.50778243e-03 7.14154914e-03 2.23402306e-02
      1.64804980e-03 2.19739974e-03 1.64804980e-03 8.05713236e-03
      9.15583223e-04 2.56363302e-03 1.83116645e-03 3.27778794e-02
      2.38051638e-03 4.39479947e-03 4.39479947e-03 2.72843800e-02
      1.46493316e-03 5.49349934e-03 6.40908256e-03 7.76414573e-02
      4.94414940e-03 7.32466578e-03 8.60648230e-03 4.02856618e-02
      2.74674967e-03 8.78959894e-03 7.50778243e-03 2.06921808e-02
      2.38051638e-03 4.02856618e-03 4.94414940e-03 1.73960812e-02
      3.29609960e-03 4.94414940e-03 6.95843250e-03 7.72752240e-02
      4.57791612e-03 1.13532320e-02 9.52206552e-03 2.80168466e-02
      2.56363302e-03 7.50778243e-03 8.05713236e-03 3.75389129e-01
      1.95934810e-02 3.36934626e-02 3.02142464e-02 2.96465844e-01
      1.48324482e-02 6.99505582e-02 4.87090275e-02 7.43453577e-02
      8.78959894e-02 1.92272477e-02 3.86193007e-01 3.62570956e-02
      3.62570956e-02 2.28895806e-02 3.82530659e-01 9.33894888e-03
      9.70518216e-03 4.94414940e-03 4.21168283e-02 7.14154914e-03
      9.52206552e-03 6.59219921e-03 8.27687234e-02 5.85973263e-03
      6.77531585e-03 3.29609960e-03 2.12415308e-02 2.01428309e-03
      3.11298296e-03 1.46493316e-03 1.62973814e-02 6.77531585e-03
      8.97271559e-03 3.11298296e-03 4.41311114e-02 6.77531585e-03
      6.59219921e-03 5.49349934e-03 7.89232701e-02 4.94414940e-03
      7.14154914e-03 1.83116645e-03 2.87493132e-02 3.66233289e-03
      3.84544954e-03 3.66233289e-04 2.89324299e-02 1.28181651e-03
      1.46493316e-03 0. 1.19025819e-02 7.32466578e-04 1.64804980e-03
      7.32466578e-04 2.16077641e-02 5.67661598e-03 7.50778243e-03
      1.64804980e-03 3.49752791e-02 2.19739974e-03 2.19739974e-03
      1.28181651e-03 2.92986631e-02 3.33272293e-02 4.59622778e-02
      1.00714155e-02 3.16974908e-01 3.33272293e-02 3.53415124e-02
      2.28895806e-02 5.10346115e-01 8.95440429e-02 8.14869106e-02
      2.27064639e-02 4.31056589e-01 2.78337300e-02 2.47207470e-02
      1.92272477e-02 2.75773674e-01 7.14154914e-03 9.15583223e-03
      1.28181651e-03 3.33272293e-02 5.31038269e-03 3.66233289e-03
      2.74674967e-03 6.00622594e-02 4.94414940e-03 2.92986631e-03
      9.15583223e-04 1.44662149e-02 9.15583223e-04 1.83116645e-04
      3.66233289e-04 1.04376487e-02 6.22596592e-03 6.95843250e-03
      2.38051638e-03 3.44259292e-02 3.11298296e-03 2.56363302e-03
      3.47921625e-03 4.15674783e-02 2.25233473e-02 1.83116645e-02
      4.21168283e-03 8.14869106e-02 6.40908256e-03 4.94414940e-03
      4.21168283e-03 5.58505766e-02 4.02856618e-03 4.21168283e-03
      5.49349934e-04 1.66636147e-02 3.84544954e-03 2.56363302e-03
      2.19739974e-03 3.05804797e-02 2.12415308e-02 1.55649148e-02
      5.85973263e-03 7.59934038e-02 6.04284927e-03 2.19739974e-03
      2.74674967e-03 4.66947444e-02 7.85570443e-02 6.15271926e-02
      2.01428309e-02 5.04303217e-01 5.53012267e-02 4.13843617e-02
      3.58908623e-02 6.48049831e-01</_>
    <_>
      1. 5.49061820e-02 7.52076283e-02 5.81359565e-02 4.19717014e-01
      1.93786528e-02 5.89049496e-02 5.42909876e-02 7.47462288e-02
      4.30636713e-03 1.03045218e-02 6.30575186e-03 6.65948913e-02
      4.30636713e-03 1.03045218e-02 1.16887111e-02 5.64441718e-02
      2.15318357e-03 3.99876945e-03 6.30575186e-03 2.18394343e-02
      1.38418947e-03 5.22916019e-03 3.38357431e-03 6.18271306e-02
      3.69117199e-03 7.68994121e-03 7.68994121e-03 5.16764075e-02
      2.46078125e-03 9.38172825e-03 1.13811130e-02 7.27468431e-02
      4.92156250e-03 7.22854491e-03 6.76714862e-03 4.55244519e-02
      2.30698241e-03 8.92033242e-03 9.38172825e-03 1.99938472e-02
      1.07659178e-03 1.69178715e-03 1.99938472e-03 1.67640727e-02
      3.07597686e-04 2.76837894e-03 3.69117199e-03 6.05967380e-02
      2.76837894e-03 6.30575186e-03 6.45955093e-03 3.89111042e-02
      1.07659178e-03 8.76653288e-03 7.53614260e-03 1.95016921e-01
      1.76868644e-02 3.07597648e-02 3.16825584e-02 1.92556128e-01
      1.47646880e-02 5.16764075e-02 5.78283593e-02 4.21254992e-01
      2.27622259e-02 4.06028889e-02 3.58351283e-02 2.09012613e-01
      1.23039065e-02 2.75299903e-02 2.53768060e-02 4.15256843e-02
      9.22792999e-04 7.68994121e-03 6.61334954e-03 2.89141797e-02
      2.30698241e-03 6.92094723e-03 4.30636713e-03 2.16856357e-02
      1.53798831e-03 1.69178715e-03 2.76837894e-03 9.84312501e-03
      4.61396499e-04 1.84558600e-03 6.15195313e-04 3.75269130e-02
      3.07597662e-03 7.38234399e-03 7.53614260e-03 2.29160246e-02
      2.30698241e-03 4.76776389e-03 4.30636713e-03 6.05967380e-02
      2.76837894e-03 9.22792964e-03 8.45893566e-03 3.21439542e-02
      9.22792999e-04 3.38357431e-03 5.69055649e-03 1.58412792e-02
      4.61396499e-04 2.92217778e-03 2.46078125e-03 1.43032912e-02
      3.38357431e-03 5.22916019e-03 5.07536158e-03 5.52137792e-02
      4.15256852e-03 9.84312501e-03 9.68932640e-03 2.70685945e-02
      2.15318357e-03 5.53675788e-03 6.61334954e-03 1.87942162e-01
      1.30729005e-02 3.73731144e-02 4.02952917e-02 1.61950171e-01
      1.50722852e-02 4.24484760e-02 5.95201477e-02 7.79760033e-02
      6.13657311e-02 2.04552449e-02 1.94401726e-01 4.21408787e-02
      4.21408787e-02 1.89172551e-02 1.92248538e-01 9.07413103e-03
      7.84374028e-03 5.69055649e-03 3.41433398e-02 1.24577051e-02
      1.16887111e-02 7.38234399e-03 5.76745607e-02 9.22792964e-03
      7.99753889e-03 5.84435556e-03 2.04552449e-02 7.84374028e-03
      6.45955093e-03 5.84435556e-03 2.01476458e-02 1.21501079e-02
      1.03045218e-02 4.92156250e-03 3.41433398e-02 1.07659176e-02
      9.84312501e-03 6.76714862e-03 6.18271306e-02 8.76653288e-03
      8.61273427e-03 3.84497084e-03 3.10673639e-02 8.92033242e-03
      7.68994121e-03 2.46078125e-03 3.53737287e-02 2.15318357e-03
      1.38418947e-03 1.45519152e-11 1.15349125e-02 2.61458009e-03
      1.84558600e-03 2.15318357e-03 2.13780366e-02 8.76653288e-03
      1.01507222e-02 7.68994156e-04 3.30667496e-02 9.07413103e-03
      7.68994121e-03 2.61458009e-03 3.81421112e-02 3.44509371e-02
      3.41433398e-02 1.16887111e-02 2.72377729e-01 3.90649028e-02
      4.52168547e-02 1.98400486e-02 4.32943702e-01 5.69055676e-02
      5.67517690e-02 1.76868644e-02 1.98092893e-01 2.95293760e-02
      2.21470315e-02 1.72254685e-02 1.63026765e-01 7.84374028e-03
      8.76653288e-03 2.46078125e-03 4.19870801e-02 4.92156250e-03
      4.46016621e-03 3.22977547e-03 3.92187014e-02 4.15256852e-03
      2.76837894e-03 4.61396499e-04 1.50722852e-02 1.23039063e-03
      1.69178715e-03 1.53798843e-04 1.18425097e-02 5.84435556e-03
      6.76714862e-03 2.61458009e-03 4.26022746e-02 3.84497084e-03
      5.99815417e-03 3.22977547e-03 5.41371889e-02 1.46108884e-02
      9.84312501e-03 3.53737315e-03 5.38295917e-02 5.99815417e-03
      5.22916019e-03 2.92217778e-03 4.64472473e-02 2.61458009e-03
      3.69117199e-03 3.07597686e-04 1.75330658e-02 5.38295880e-03
      3.99876945e-03 2.46078125e-03 4.13718857e-02 1.33804977e-02
      1.38418945e-02 3.99876945e-03 5.55213764e-02 5.22916019e-03
      5.69055649e-03 4.92156250e-03 5.38295917e-02 4.98308204e-02
      5.81359565e-02 1.87634565e-02 4.41710234e-01 4.36788686e-02
      5.61365709e-02 4.44478616e-02 7.07167029e-01</_>
    <_>
      1. 5.27620971e-01 6.47177398e-02 1.09677419e-01 7.45967701e-02
      1.71370972e-02 1.07862905e-01 1.07862905e-01 6.99596778e-02
      3.40725817e-02 1.31048383e-02 2.09677424e-02 9.79838669e-02
      3.30645144e-02 4.50403214e-01 4.40120965e-01 5.31653225e-01
      2.07862899e-01 3.28629017e-02 3.06451600e-02 2.39919350e-02
      4.63709654e-03 3.18548381e-02 1.79435480e-02 1.07056446e-01
      3.30645144e-02 1.87499989e-02 2.35887095e-02 1.12096772e-01
      2.15725806e-02 4.35887098e-01 2.96975791e-01 6.79435506e-02
      3.60887088e-02 4.83870972e-03 6.85483869e-03 5.44354832e-03
      1.41129026e-03 8.26612860e-03 8.26612860e-03 8.46774224e-03
      3.62903229e-03 2.01612897e-03 1.61290320e-03 8.46774224e-03
      2.82258051e-03 3.18548381e-02 3.42741944e-02 1.02217741e-01
      3.22580636e-02 9.07258037e-03 6.65322552e-03 7.66129000e-03
      1.41129026e-03 9.27419309e-03 3.83064500e-03 3.79032269e-02
      1.04838712e-02 6.85483869e-03 7.66129000e-03 2.84274183e-02
      7.86290318e-03 1.00806452e-01 7.33870938e-02 7.64112920e-02
      2.72177421e-02 8.26612860e-03 6.45161280e-03 1.27016129e-02
      4.63709654e-03 1.02822576e-02 6.85483869e-03 9.67741944e-03
      5.24193561e-03 4.63709654e-03 5.64516103e-03 1.06854839e-02
      6.65322552e-03 2.60080639e-02 1.93548389e-02 2.23790314e-02
      8.87096766e-03 6.85483869e-03 6.85483869e-03 4.03225794e-03
      4.83870972e-03 7.66129000e-03 5.64516103e-03 6.85483869e-03
      5.84677421e-03 5.64516103e-03 4.83870972e-03 9.47580673e-03
      5.64516103e-03 1.97580643e-02 9.87903215e-03 9.23387110e-02
      3.93145159e-02 9.87903215e-03 1.16935484e-02 1.04838712e-02
      5.04032243e-03 9.67741944e-03 7.25806458e-03 8.26612860e-03
      6.45161280e-03 4.23387112e-03 2.01612897e-03 1.29032256e-02
      3.83064500e-03 4.21370976e-02 3.02419346e-02 1.09072581e-01
      1.93548389e-02 7.86290318e-03 5.84677421e-03 4.23387112e-03
      6.04838715e-04 8.66935495e-03 4.03225794e-03 2.86290310e-02
      6.04838692e-03 6.45161280e-03 5.84677421e-03 3.26612890e-02
      4.83870972e-03 8.68951604e-02 4.19354849e-02 6.00806437e-02
      1.07661292e-01 6.65322552e-03 4.05241922e-02 3.42741935e-03
      4.83870972e-03 6.65322552e-03 2.72177421e-02 4.03225794e-03
      6.04838692e-03 1.20967743e-03 6.45161280e-03 7.45967729e-03
      5.64516103e-03 2.94354837e-02 9.49596763e-02 3.42741944e-02
      3.62903215e-02 3.83064500e-03 1.41129028e-02 1.41129026e-03
      6.04838715e-04 3.22580640e-03 5.44354832e-03 7.45967729e-03
      4.63709654e-03 1.20967743e-03 6.65322552e-03 6.25000009e-03
      7.45967729e-03 3.22580636e-02 6.83467761e-02 1.00806449e-02
      1.49193546e-02 6.04838715e-04 3.83064500e-03 1.20967743e-03
      6.04838715e-04 1.00806449e-03 4.43548383e-03 1.61290320e-03
      1.20967743e-03 2.01612900e-04 2.41935486e-03 1.41129026e-03
      1.20967743e-03 8.66935495e-03 2.01612897e-02 1.65322572e-02
      2.60080639e-02 1.41129026e-03 6.65322552e-03 8.06451601e-04
      4.03225800e-04 6.04838715e-04 4.63709654e-03 6.04838692e-03
      4.03225794e-03 1.81451614e-03 8.87096766e-03 5.24193561e-03
      3.02419346e-03 2.13709679e-02 4.85887080e-02 1.00403227e-01
      1.15120962e-01 9.27419309e-03 3.85080650e-02 6.45161280e-03
      4.43548383e-03 1.55241936e-02 3.02419346e-02 5.64516103e-03
      7.05645140e-03 8.06451601e-04 4.83870972e-03 7.05645140e-03
      6.45161280e-03 4.27419357e-02 8.32661241e-02 3.46774198e-02
      1.89516135e-02 4.43548383e-03 5.04032243e-03 1.41129026e-03 0.
      2.62096780e-03 6.25000009e-03 6.25000009e-03 5.44354832e-03
      1.81451614e-03 4.63709654e-03 5.44354832e-03 4.03225794e-03
      2.90322583e-02 4.29435484e-02 4.68346775e-01 4.80846763e-01
      3.32661271e-02 1.10080644e-01 2.66129021e-02 1.79435480e-02
      4.23387103e-02 8.50806460e-02 3.52822579e-02 3.64919342e-02
      9.47580673e-03 2.45967731e-02 4.45564501e-02 3.10483873e-02
      3.44959676e-01 5.22580624e-01 4.44758058e-01 3.06048393e-01
      3.42741944e-02 5.98790310e-02 1.41129028e-02 7.05645140e-03
      3.10483873e-02 4.37499993e-02 9.25403237e-02 7.03629032e-02
      2.27822568e-02 5.10080643e-02 9.09274146e-02 4.49596755e-02
      5.17741919e-01 6.68145180e-01</_>
    <_>
      1. 5.67669375e-03 2.32903603e-02 2.35556271e-02 4.33975272e-02
      5.83585352e-04 4.08509746e-03 4.08509746e-03 2.43514236e-02
      1.06106425e-04 1.37938350e-03 5.83585352e-04 4.61562956e-03
      5.30532125e-05 1.96296885e-03 5.30532096e-04 5.57058724e-03
      2.65266048e-04 1.59159637e-04 1.06106425e-04 3.71372502e-04
      5.30532125e-05 0. 5.30532125e-05 2.38739457e-02 1.59159637e-04
      6.36638550e-04 8.48851399e-04 5.04005514e-03 1.06106425e-04
      1.48549001e-03 6.36638550e-04 3.13544497e-02 2.12212850e-04
      9.54957795e-04 1.00801105e-03 1.37938350e-03 0. 1.59159637e-04
      2.65266048e-04 4.08509746e-03 0. 2.12212850e-04 1.59159637e-04
      3.71372502e-04 0. 0. 0. 3.01872771e-02 5.30532125e-05
      9.54957795e-04 9.01904597e-04 1.22022384e-03 0. 2.65266048e-04
      5.30532125e-05 6.30749643e-01 2.49350094e-03 1.07167494e-02
      9.49652493e-03 7.85718113e-02 2.65266048e-04 5.41142747e-03
      3.07708629e-03 5.32654263e-02 4.24425700e-04 1.43243675e-03
      1.22022384e-03 7.10913027e-03 0. 2.65266048e-04 2.12212850e-04
      1.64464954e-03 0. 0. 0. 2.12212850e-04 0. 0. 0. 3.71372502e-04 0.
      0. 0. 0. 0. 0. 0. 1.85686245e-03 0. 0. 0. 1.59159637e-04 0. 0.
      5.30532125e-05 6.26027910e-03 1.59159637e-04 1.06106425e-04
      2.12212850e-04 5.83585352e-04 0. 5.30532125e-05 5.30532125e-05
      9.01904597e-04 0. 0. 0. 5.30532125e-05 0. 0. 0. 7.10913027e-03 0.
      2.65266048e-04 2.12212850e-04 3.71372502e-04 0. 0. 0.
      6.18600473e-02 2.65266048e-04 8.48851399e-04 1.06106419e-03
      1.44835273e-02 1.06106425e-04 4.77478898e-04 3.18319275e-04
      2.87548415e-02 2.89140008e-02 4.40341653e-03 5.79500258e-01
      1.59159640e-03 1.32633036e-03 1.59159637e-04 7.17809945e-02
      1.00801105e-03 9.01904597e-04 1.59159637e-04 1.11411745e-02
      2.12212850e-04 1.06106425e-04 1.59159637e-04 5.72974700e-03
      1.59159637e-04 1.06106425e-04 0. 2.97098001e-03 0. 0. 0.
      1.06106425e-04 9.54957795e-04 6.89691748e-04 5.30532125e-05
      1.11942282e-02 4.77478898e-04 1.16717070e-03 1.48549001e-03
      5.99501282e-03 3.39540560e-03 2.97098001e-03 3.76677816e-03
      1.78789329e-02 3.44845885e-03 2.86487350e-03 2.86487350e-03
      4.35036328e-03 2.81182025e-03 1.85686245e-03 4.45646979e-03
      6.89691771e-03 3.87288444e-03 5.57058724e-03 2.17518164e-03
      7.95798202e-04 1.00801105e-03 1.59159640e-03 4.24425700e-04
      1.35285696e-02 1.06106425e-04 1.59159637e-04 5.30532125e-05
      1.00801105e-03 1.25736110e-02 1.22022387e-02 2.33434141e-03
      2.29667351e-01 1.48549001e-03 1.32633036e-03 5.30532125e-05
      3.80922072e-02 6.41943887e-03 5.94196003e-03 6.36638550e-04
      5.58650345e-02 6.36638550e-04 1.06106425e-04 5.30532125e-05
      1.24144517e-02 0. 1.06106425e-04 0. 1.53854315e-03 0. 0. 0.
      4.24425700e-04 5.30532125e-05 0. 0. 2.12212850e-04 0. 0. 0.
      5.30532125e-05 3.18319275e-04 1.59159637e-04 0. 9.54957795e-04 0.
      5.30532125e-05 0. 3.18319275e-04 4.24425676e-03 1.69770280e-03
      1.06106425e-04 6.41943887e-03 2.12212850e-04 0. 0. 4.77478898e-04
      1.06106425e-04 0. 0. 6.89691748e-04 0. 0. 0. 5.30532125e-05
      1.11411745e-03 7.95798202e-04 2.12212850e-04 4.35036328e-03 0. 0.
      0. 2.65266048e-04 7.05607748e-03 3.55456513e-03 2.65266048e-04
      4.48830165e-02 9.01904597e-04 1.06106425e-04 5.30532125e-05
      1.00801103e-02</_></uncompressed_support_vectors>
  <decision_functions>
    <_>
      <sv_count>1</sv_count>
      <rho>2.5678521704240781e-01</rho>
      <alpha>
        1.</alpha>
      <index>
        0</index></_></decision_functions></opencv_ml_svm>
</opencv_storage>
